-0.24053609228408704 0.9009886280702335 0.4529555355982551 0.1956771317185597 -0.6868211407148297 -0.6870927799157033 -0.8829400067552333 0.736337391295474 0.18944450662746967 0.4182339936971332 -0.9558538829739006 0.9410925651842739 0.6515826862582877 -0.5785717591675239 -0.635656328781211 -0.6344529457397855 -0.3884031353988401 0.03909920104964523 -0.1358741815695858 -0.42737452666547127 0.22792105995013376 -0.727239660490819 -0.41879104480172674 -0.27425668453464114 -0.09072631767606028 0.5763321573806154 -0.5959557401469882 0.018648706345497323 0.18989081768079588 -0.9102468726207495 0.20360863770602497 -0.656717989046818 -0.8841335206877518 0.9068701622728302 0.928113424437675 0.6040733089224292 -0.38757464442468553 -0.7962618111318547 0.36842612975636657 -0.11016210409759905 -0.7503416584889596 -0.002204681746417931 -0.9315996213954527 0.8128891155423685 -0.4922978969057029 0.3117355622888956 -0.37450940700465574 0.04677485607957264 0.08524813756312899 -0.6277487054736857 0.9341234571296214 0.5550198565905579 0.8754276513519631 0.7909223165025294 0.19493372465759112 0.8395985371128899 -0.8235626525126507 -0.6148891126160608 -0.918884287491131 -0.33888029806898606 -0.21717515291594022 -0.44538292600796564 0.6463621762515969 -0.2960989789579352 -0.4442946262677758 0.08710901263537436 -0.7143715186004211 0.6033834373490041 -0.8579042391665492 0.9733538076432818 0.5446454389754978 -0.6118722296575939 -0.9894464930945169 0.626087404935348 0.40529292909298026 0.46128901613020606 0.557987291750516 -0.8425849296344536 -0.29114956512393964 -0.7805306649888062 0.7194531743711505 0.24189778395850167 -0.3550505574312256 -0.8651702750429121 -0.36835937378995376 -0.3391170221784061 0.4593371880607344 0.27601773696979687 0.7670015794250407 -0.0610399694310536 -0.7599183059225479 0.43948293974431246 0.5179318933247083 0.12125124793906567 0.5550817013425776 -0.009814653198826365 0.058299229655400915 -0.15676224172754324 -0.9438388537244529 -0.7992599528854689 -0.9281096397136327 0.25742711647802136 -0.3778606524714523 0.0203584602519703 0.8166755053670122 -0.5017814948222244 -0.17847152099095878 0.5175268173396657 -0.5449477013203526 -0.849333214483067 -0.4249819226932506 -0.6757146458346884 0.8566385242619645 0.6199444210782831 0.26983578780910306 0.7527520398834109 0.6086352200623562 -0.6180827351295031 0.7860238140012453 0.08890380362541964 0.6214579955710459 0.7958850393139678 -0.36865728693788147 -0.7773804431353122 -0.5372031234411913 -0.14614056409945236 0.6368627985809903 0.7250632909636726 -0.9771389159099946 0.013145676291907028 -0.16716404574909 -0.5648823479718982 -0.7640793743188643 -0.31049189737519683 0.8870850914505009 -0.35197926433586535 0.03589916112609058 0.41185456744746307 -0.279753751001685 0.9533006556202325 0.9369469710419369 -0.48952222453900895 -0.009300268475484331 -0.4012179066064878 -0.4277874648535997 -0.9274749404213448 0.23212283110744614 0.0063491270154550075 -0.8938782492367853 -0.4384339772096924 0.8264683334599415 -0.5286046463956907 -0.7173937603539218 -0.010576806124976612 0.9798555909215136 -0.5076108747655756 0.34459491556111643 0.5202435266224158 -0.5133234847626444 0.4541439579155435 -0.2704919941671311 0.257230399952536 0.2705348083354536 0.0780451890559642 -0.826396194826281 0.6640789140415245 -0.36522848050387247 -0.6195803572283397 -0.9216760343923953 0.17747861321713926 0.35228935545343426 -0.9620140691559195 0.03193781431990958 -0.538981962309559 0.2975272467389509 -0.653615558070652 0.3896562713353628 -0.22273117109446466 0.8735228793333016 -0.7209311455987713 -0.31030783833828746 -0.7621954981541342 0.8576298686811473 0.7448386888021342 -0.4755586030485864 0.3215519914430512 0.6397603315955392 0.11474874911736342 0.04732284458632357 -0.5332142034286674 -0.8255291431649334 0.788555430437221 0.8132631654089398 0.27359785157011873 -0.3200675585509771 -0.29359486313766436 0.45085484768881257 0.7905627328885877 0.777245155532006 0.5651747861004077 0.2812249587890589 -0.8454132881649925 -0.6732679367384115 0.806167094379215 0.20959695148494997 -0.980285683958227 -0.7986066559860773 0.32672307699516534 -0.9849753236822612 -0.6701386687073009 0.09585338547880255 0.3685173500745481 0.3010253226026935 -0.5594679317899746 0.41772706608179744 -0.5337754919559282 -0.361539405476352 0.503175156415301 0.28785487587039965 0.691457140426974 0.31855132254694263 0.140647501727101 -0.8104429626267889 -0.2645346951943298 -0.478085442518237 -0.5030322150445988 0.9426442220839083 -0.22395281369923686 0.788337732086821 0.2674646735721393 0.5844678377774871 -0.010331207647474866 0.15270707090819238 -0.023786276691028462 -0.6093760591410101 0.4420149460316004 -0.4290672345463979 -0.9521565671358115 0.30034486379118425 -0.6593644915703546 0.8613029791652707 0.9030249089338409 0.8364950885881014 -0.26460283742343516 -0.9588582601367848 0.8548443374394907 -0.14832006157782812 0.9316491027495839 0.9254950125139506 0.7022593641675593 -0.40270961674506073 -0.22206764028641673 0.6967012518971262 -0.38190016190171217 -0.6573695029076903 0.1073556179837355 0.8712061494277418 0.39669821152717377 0.14342755034797508 -0.8013181078704904 0.22357414315880222 0.9714369013872262 -0.7196539125141276 0.029364532440253464 0.7590362134406484 0.4759337948080938 0.3790840216242402 0.406025040271841 -0.2830781409745691 -0.4237959790695532 0.6128728461118153 0.6177340483692699 0.7342876299200272 0.814117371556746 0.01945349038617657 0.008909523101394753 0.609056194140396 0.30438510272325064 0.3982565890293662 0.5903262485093328 0.7894859075201395 -0.3082027313827168 -0.2584724215023682 -0.8064300486007173 0.15996527121934487 -0.9184830423127363 -0.07635815673957666 0.07492192035979281 -0.43975518290097537 0.17356856006269583 -0.9373121012408294 -0.9276487173859184 0.6455615524564253 -0.28111093675923254 -0.7503873104215759 0.04258010381107447 0.546126786621289 -0.5701362560285973 0.24579521744181304 -0.8272770605206512 -0.8970728191478965 0.061792187734407214 0.09052601874358655 0.27868615667397245 0.4476899431724067 0.9448727543855802 0.022746822979809483 -0.36275198520300234 0.5966271618750226 -0.46622775729641647 -0.11640192873707537 -0.8389234816142249 -0.9439727151466873 0.9317034454469872 0.6806396617657018 0.3875715487094721 -0.19255443060943253 -0.6572810505246832 -0.6784840139275826 -0.503410086786336 0.1003641672413054 0.4271839774384011 0.3139882913250462 -0.4354243460899809 0.911680764128867 0.47189488247132694 0.09744190873594435 0.22960914702034108 -0.1647500415866823 -0.5049959625908383 -0.2901280457617468 0.5160402612714973 -0.9713445933375555 -0.7697881157585015 -0.9153986074530324 -0.9042164301827126 0.7058018937383732 0.4119779530845514 -0.04856048258746742 -0.8056195433593882 -0.019711259787118043 -0.050661728194625506 -0.6713585212768206 -0.1358645583694794 -0.20017529142018983 0.24783369228041477 0.27555400028212323 -0.904505616427948 -0.25665979998890787 0.2609570433357671 0.006326114637860932 0.7093469881592626 0.317366115054008 -0.6641887203254447 -0.8665486494057503 0.2974365995105769 -0.9399841093107217 0.1743954514269754 0.8740856035009699 0.15735674338145347 -0.22831678736379882 0.28581901363145884 -0.07930988285105799 0.09307051357864031 0.8890560696277012 -0.22194018973808716 0.907153547038108 0.811174809609628 -0.601953350934109 -0.8493182804091951 -0.8039030026473776 -0.9706510379607766 -0.8059396435840244 0.36261777807023665 -0.8669758903017232 -0.34805090470334477 0.6844706264052639 -0.9598554907021147 0.617221920750869 -0.4247562665689239 -0.7691236473500612 0.3863790075002127 0.26631327569878893 0.7500886016492915 0.48074406077716025 0.6078269655736284 -0.4273102697221015 -0.6398008177453249 0.4900490146153322 0.6264565926136925 0.9884530288130854 -0.1792479644966927 -0.25247806514825333 0.5409501329683032 -0.3014136859087986 0.8629954719789464 0.7092414199608768 -0.14726947694493528 0.5059852843931618 0.5189072716931881 -0.7897609889108725 0.8088052985564395 -0.0009126980877501135 0.6526459096783993 -0.3532777115201235 0.7955194224442188 -0.21171105984116886 -0.9741228217297605 0.8081214767685473 -0.8230247878820784 -0.35956129284351485 0.8958249062363085 0.9091173536336697 0.15033092994351444 0.2706407468118474 -0.09457606319403461 -0.4245418402957879 -0.3347366376805623 0.3299978682979981 0.506689000975627 0.5773374944597183 0.5718930138665957 -0.8168816269913942 -0.023832345524894268 -0.8795206042511288 0.10889231385918899 -0.1288495044510188 0.7715781512165515 -0.28725890838191426 -0.7534641648607865 -0.7103791923094629 0.5321393440085631 0.22789129187942248 -0.8060059560911212 -0.8369420103510535 0.40524274036225666 -0.8605025917924158 0.6531283062050429 0.40076942411135663 -0.8430125918090909 -0.8243892299379738 0.9709437098192482 -0.2563819853719427 -0.2485001020156233 0.6245343611496614 0.903818823800337 0.967453638638439 0.5003197108763887 -0.23528609479090082 -0.833303985265702 0.5420082588274012 0.11582841384135 -0.14851475584745982 0.811259851689727 -0.7824819316630609 -0.02558411557206579 -0.9796713385238771 -0.07540048209712641 -0.8866251408542202 -0.7641333775598762 -0.7611844463420572 0.3045552999768916 0.4906614637882459 0.17630218020541213 0.9390221792975605 -0.25890118551771 -0.4236112405487659 0.7332644893095152 -0.562254531670346 0.9186635314900543 -0.9796968531128702 0.9318478492330602 -0.9111161998680255 0.7693812794234536 0.055082451506036224 0.9799960982331773 -0.856233771484261 0.10089733578996482 0.9318248237970712 0.0631403583654631 0.2718239425343474 0.3969831256523737 -0.09036233087980877 0.2604402657425338 0.17364130752789056 0.7946032602805758 -0.9116447531952748 -0.43167737275548274 0.903502131148113 0.7834033186472211 -0.09042311661754394 0.2399379905917791 -0.4324219107197334 -0.6218324451884765 -0.08502005281687995 -0.2984940025206855 0.1530276323082894 -0.8488206486795941 0.9482978075593345 0.9742991675713218 0.40011588311677665 0.06882240402079984 -0.3787255878522173 0.6190533318096438 0.3791774484710104 -0.6907405067656263 0.8271726646059402 0.6434132217703378 0.9044018994153652 0.43298084807092135 0.21877721668916952 -0.16487164172798627 0.8672310734356966 0.7257055141771892 -0.9019873051777358 -0.9605499964434661 -0.2535000639016679 0.6145762628324757 0.973397482927677 -0.6907294497614488 0.19378497783748042 -0.25007982679963076 0.9338771424200581 0.6765631870682857 0.6928120082449178 -0.06800890315867344 -0.1800664223291459 -0.4458577267221345 -0.8902405903075393 0.7383213348630553 0.624295796130563 1.007051892036088 1.0021221051523397 0.09724226435017394 0.5486080439673393 0.8938761700305267 0.7011246565813607 -0.5078716969638678 -0.09915283233087505 -0.7327640253805101 0.9034880207906272 0.20866032943907192 -0.5375202152537567 0.3370189451792805 0.23344206826439143 -0.273554858795813 -0.7839785819083206 0.3430296148697371 0.04081755263033211 0.5424975171791965 0.044375212227046955 0.7121285767371961 0.10668396990516767 0.11731259368101683 0.766283826229925 -0.1837308809575799 -0.7235922195908426 -0.9446880286816999 0.504851994081583 0.2557160151979759 0.40975979199695645 -0.5689999556272973 -0.7254376722799984 -0.9699477960569821 -0.30586432923627943 0.1786245696276631 -0.21605077014907467 -0.12048026776861169 0.8075204587207877 -0.30114555191606046 0.02456312326237916 0.5558246290259542 -0.19829000484668388 0.24244057261809177 0.7221430429331277 0.9004594352928073 -0.7058770720320509 0.84043483476776 -0.02220243554996807 -0.48523012232914736 -0.08484932200354237 0.9524934687807561 -0.021540803413439946 -0.337029717076176 0.2744142608126685 -0.522164703381879 -0.8405761290141525 -0.7385702108640364 -0.7570148478591596 -0.6958862811424973 -0.7207245655336085 0.27923420107710156 -0.6288223086068049 -0.30413432755318687 0.7809855898083129 -0.05234301929646168 0.3353440167977502 -0.6590875628797656 -0.6055323592453712 -0.9165686296814328 -0.6631767173438153 -0.4334979990955378 -0.638233629035383 -0.8179657409137595 -0.7536330924020151 -0.08976322686450314 -0.5923802831286338 -0.2615391651727179 0.02068812533611943 0.3790265318543798 -0.9239207922926715 0.6064052619683802 0.25788633216953344 -0.8412953246207956 0.7461690943408903 0.8369072589323112 -0.8726069178963342 -0.45129136200495673 0.6209018279551793 0.48838894188448895 -0.6249620108889563 -0.5971565695620508 -0.2608496882946308 -0.016281108626914655 0.24728167240436813 -0.27159144085376946 -0.08698853243512972 0.499821708860312 -0.9258923387145318 -0.48743823849844653 0.42583936127277894 0.7873260230684772 0.03785301013753648 0.05644368741740475 -0.7765226342304942 -0.10782120954428466 0.07603657468142978 -0.5135303413258109 -0.4647689516737771 -0.24192040572384735 -0.970159959561572 -0.36067094723140486 -0.5731507863121224 -0.34758416372139045 -0.7645200747357077 0.7784666478659069 0.19050783812353883 0.36595936120148675 0.5737825654549923 0.0013760001287173786 -0.8238137367385816 0.0721279815277877 0.1769743318674229 0.49583022728201354 -0.13251432792567114 -0.743583824077833 -0.4243987164859636 -0.26675962144555493 0.29361180319221014 0.145129940496787 -0.29407746049397476 0.9711449659528363 0.20648591999973046 -0.5277766590982423 -0.7862197595011675 -0.7057495104459386 -0.5076199454325241 -0.6801261888457134 -0.6402942444168087 -0.43249154367557974 -0.661675104809671 0.781125832347184 -0.8378209599828347 0.04054289013947262 -0.18562781396901898 0.9603144684358748 -0.77295499523249 -0.1937259908978147 0.936552357914752 0.7252358115220949 0.6402850810061743 -0.47713496088789037 -0.6627523803845973 0.3392236082854649 0.853862850166407 0.12143401949383828 0.14274619532482546 -0.43023575926262236 0.5385038279695149 -0.6280667434594517 -0.3536515463317751 -0.16098052436091903 0.018064582348439776 -0.5097782716717821 -0.7769559231510434 0.21604512098424228 -0.42430535077662473 0.14733445436104584 -0.6903210384121896 -0.040789753743611754 0.07671257491753783 -0.8991180166335493 -0.32162447465544297 -0.7174651173544717 -0.8778358908370546 0.9790585882583417 -0.35016661695626605 0.6189470216216058 -0.5002001714925883 0.3581472852859798 0.5329203457710496 0.1815870289829663 -0.06043112525150252 -0.18057095946705806 -0.29775091289007083 0.8606966604031036 0.658134124120279 0.9215236441715781 -0.7525140583535521 0.47128464472935494 0.8710589771326782 -0.6455491686639517 -0.8741883683516068 0.49125975943568967 0.14323105164859276 0.6732002778087951 -0.7301399040756256 0.6090141335708571 -0.599610518677926 -0.6690662535888099 -0.6564988683235573 0.6364655853331859 0.32420372671731806 0.040219829183559416 -0.2820306411313361 0.754724733200952 -0.21835160098757042 0.6397017816001933 -0.1157672640050117 -0.2459700889408433 -0.06945684954376721 -0.40649961725758205 0.49776483286965634 0.010361777731668397 -0.5354621781099977 0.8107648825022448 -0.243777991599419 0.08696544240551882 0.8187509920755494 0.24712844761739883 -0.771204184018629 0.8920062246778128 0.25592753320950845 -0.3380175027076932 -0.722938672368994 0.5867464998327236 0.23038790058890382 0.06540914768785613 0.7823947018189586 0.5742521715683697 -0.7007312914958653 -0.3800188580246746 -0.5096692089880434 0.49497215539186956 -0.9323257622436573 0.14305390895878992 0.51621452620542 0.7456855059300145 -0.3134071990794976 0.6365879739594088 -0.7730695515340832 0.7071675479890561 -0.7460465609792781 -0.20892026847260997 0.5895242268663439 -0.7028068307549571 -0.5480196163930506 0.4462617702471524 0.4431738466595888 0.2917900517787869 0.3827181016650053 0.09435045577213444 -0.5055947809682382 -0.30062239362920834 -0.6433951980162594 0.8290371726721052 0.1752097121335149 -0.21132440119061038 -0.07339556013544586 0.8777667135917445 -0.6955293888388735 0.1808292129725493 0.014585001183325456 0.21908512800159669 -0.9484874986545441 0.7471679791568573 0.8505712336003197 0.13055894848472002 0.4039750862881993 0.8459687085294267 0.4041905284039214 -0.6892778713671659 0.16291142297476874 0.218187214961838 -0.15416871288510356 0.464588401841414 0.8684493180704029 0.854889815485164 -0.09640402885965858 -0.7607300431934738 0.9689311651492508 0.6840461015894533 -0.7435233851140081 0.8478368179085517 0.7416558354414549 0.04342964338014309 0.19488042946020523 -0.1923692697461155 -0.8899524215103987 -0.32101818896476175 0.6142394266726743 -0.9898216344906975 -0.32600925591456353 -0.1944105838455934 0.07374021045331104 0.8477576693144702 -0.310484847955046 -0.3172698397923534 0.4686865093569491 -0.08811363034787564 -0.5654156492939472 -0.10569590233002227 -0.7181361760590903 -0.637226784065331 0.005024361002082955 -0.15737248774799772 0.8228633235209503 -0.26176909287786515 0.14904096138049988 0.2679113325935815 -0.9820370681224613 0.3156104568453352 -0.6440561118593853 0.9182336705163521 -0.7070359508407413 -0.169683538631864 -0.8301601775900431 1.007352766038528 0.004123165177201389 0.1937434325612993 -0.8760930302517032 0.4957103597585258 -0.5875732222331869 0.7991396666482256 -0.5894737334473795 -0.6272849679080907 -0.9382795288655932 -0.05078463308964665 0.13408452159034598 -0.8658685089242317 0.5553785862151929 -0.10275855311539886 0.04224689986952922 -0.1272394573730609 -0.19622051711315838 0.11028757737569621 -0.6866510529725931 -0.6487216941452761 0.7320692939525134 0.8941242957346632 -0.2706167873386523 -0.45266061539007424 0.28338175790749887 -0.19028634449418877 -0.9423491822735982 -0.694793743387579 0.4191100564372972 0.3083051491458672 -0.9601722197135639 -0.5532553220221524 -0.5343673132657608 0.3471093509340561 -0.968179047841415 -0.7959395692151425 0.5900017661213651 -0.6415141111162795 0.3064722528595375 -0.5156876048611005 -0.7956603350206962 -0.5139289923514191 0.45562616333388173 0.7043741217865389 0.6629590051455064 -0.20177414785515535 0.35128517334268866 -0.5890338190173863 -0.40236959008256074 0.7943602016777872 -0.9825555296019944 -0.8259433816077587 -0.5710596684734986 -0.9411487156580682 -0.6454966818218028 0.1782714203509648 -0.16069819937644714 0.7756882911097768 0.6360396577068193 -0.3126850643203909 -0.48382246987109034 -0.2464001098108259 0.19228647228344445 -0.45794592204716594 0.2354906119639565 -0.1847721694749279 0.08999396661871381 -0.1214298189867419 -0.41602464676128414 0.9098122265321402 0.5205240751091539 -0.7165317893925677 0.7391659333084968 -0.022632534438276133 0.79294700163146 0.595044017920858 -0.16194410705150758 -0.9610733702851162 -0.46053507361575435 0.093867979724519 0.27145005368794545 -0.47976880803781724 -0.716378040446599 0.6735675388241926 0.9561081527424806 0.060147337316927306 -0.6500175934996067 -0.4607137988994275 -0.9617289490812897 0.8374358732825361 -0.7459990384410197 0.1503490145166751 -0.44065843167562146 0.12158141934393916 0.3109509234168797 0.6552707190144899 -0.5811814844700951 -0.975698454834173 -0.7336575430705102 0.800348075296612 0.7520000686613868 0.1943601014845153 0.2027460070443023 0.32112767999687625 -0.6387757578620765 0.8171713622343867 -0.15666142323647794 -0.22793997729284973 0.040936102942604434 -0.9162917169061957 -0.679844232817975 0.483591909681063 -0.8327115439003174 0.20945834654902712 -0.5179754287822156 -0.23453886943465188 -0.4256582497211906 -0.29336985104087604 0.43385534225546235 -0.40165888090063345 0.1263938909627656 -0.05014317973421662 0.31729903251897473 0.8750083594614136 0.47411372145811836 -0.5691682630381493 -0.9357870552939072 -0.46820762970007823 0.18337930227091442 -0.8900957771959596 -0.004717806461996848 0.19389888535681993 -0.32006112241471907 0.5402954029410321 -0.7786353362988383 -0.8423895706976742 0.45088538514923543 -0.005620370613545288 0.3822099451225825 -0.13716543258033753 -0.5133598649804895 0.6447247159404367 0.6047123430913779 0.39704721692304834 -0.4712898426256588 0.166988943466908 -0.2835372355204858 -0.816294367850203 0.8369302809966349 -0.7296883754851468 0.9015266358865764 -0.11046171713362775 -0.6195541056024021 0.08431613194817944 0.7468428344517756 0.47380767071207786 0.6285635709548547 0.3105066821915145 0.3886545234387098 0.7064193114775836 -0.4872546846026675 -0.03501806479822943 -0.563228893499155 0.9688620260352606 0.8871376043036714 -0.9222069285124951 0.415366581672493 0.8607315247436432 -0.629947222588708 0.13140662725182184 0.83585237453687 -0.9338951188668505 0.40600550388745804 -0.39843950131680095 0.838162166848003 0.9414160762605911 
0.8851043445078781 -0.0545835601739493 0.7132639660666704 0.7140040059739563 -0.3661037662561082 0.6697410702511178 -0.9450879851237346 0.21152044696962413 -0.5663790653037402 -0.7839321243539905 -0.8644238775842573 0.4077552372297067 -0.3342541617942637 0.4836640075118269 -0.8835583899990498 -0.33423195828514213 0.03750096747940542 0.5864332347808271 -0.3601817935932096 0.22658960860896363 0.7895721602586784 0.2601362401186279 -0.5523150288010216 -0.9585897040822848 0.7478842669928525 -0.9393751453301096 0.7795787685643235 0.03706352465920286 0.8925725512788864 0.6312397822069942 0.9918118780270584 -0.32715154658985995 0.5195232581291926 -0.19262960957598785 -0.041731625073400724 0.23556925465196538 0.7686606667992308 1.0000721208598213 0.5699994648594567 -0.16120702922326147 -0.13419041991282996 0.44373128426643454 -0.5190106681620656 -0.7567516909045197 -0.3141729185974853 -0.4416047214852122 -0.3861797681994274 -0.5220885090659417 -0.9130334434672225 -0.9690577044106696 0.9815949240821363 -0.16229688435024245 -0.2102147285131975 0.33039269718052894 -0.5911518350438917 0.9026316912584291 0.58605463174111 -0.8231743119851744 -0.1570408510211399 0.7615279248644192 0.8984746664747972 -0.060538338439776844 0.21286525464890318 -0.6771542586825252 0.9704581433594645 -0.5235354103204687 0.8672655825112155 0.265802887059357 0.23483412203345386 0.054715145503244605 -0.5154109194429234 -0.6533389037512088 -0.549304300396198 -0.6562155966411074 0.5636179646129552 -0.2987979068885097 -0.8583901679134622 0.9252469850817052 0.7909989951176539 0.8464831365905269 0.9880651237474511 -0.6300169264283569 -0.23205031907649581 0.5291403963188296 0.4117445794524183 -0.6770964638332705 0.6447693219732448 -0.5840672889424728 -0.588281460394828 0.061561953068804826 0.16785727840915063 0.16841058089888064 -0.7836006563628075 0.7672535305835431 -0.44673839050427894 -0.7725387141222799 0.7886014510779435 0.9248284061265736 0.7506293292612997 0.5940624153614434 0.30965623099744344 0.08081969201829127 -0.8113661118078849 -0.15508061085807845 -0.254858813744012 -0.49331900876006923 0.468001125764466 0.017899772096189256 -0.8304081798784653 -0.55105158877898 0.3481194789430993 -0.8697658799718425 0.7050782832034027 0.023088988187240513 -0.021475674067984056 0.1851390862996138 0.6333613357971103 -0.31508691448295584 0.3301927771070859 0.1617789999899189 -0.4730961558597065 0.7591119659412565 0.5748518059339215 0.27251796779205556 0.6735897208745928 0.7062432153161795 0.4367778617266672 0.6712371716965512 0.42334928573789965 0.33385859792310957 0.2070294653769863 0.5129469486291285 -0.6797066926172427 0.7893576752971798 0.7310974093794108 -0.9476316147833217 0.6820542168486129 -0.7384937947055338 -0.299894523969663 0.494738621013174 -0.677494301030064 0.6113580236992578 0.6745728843032597 -0.014330032684488729 -0.9920833087641476 -0.4489641733754344 0.24352635013170304 0.9354784849679172 0.2977828356206323 -0.4720549020331134 0.2642381995356408 0.0972645514654205 0.5748814892943489 -0.7786874045447084 0.5348914063582026 0.07810427315852722 0.8985699228030715 -0.331338554852851 0.2622985431463551 0.8452163492251931 -0.8007726734865914 0.8892393837215097 0.38757002180286954 -0.8576026646018821 -0.40397975908436334 0.41909377282626736 -0.84181397399998 0.19230565782010703 -0.31748028826070945 0.23486775884910463 -0.8924270390110761 0.7280643670451596 0.9376389756619842 0.9622245687217788 0.46876544140242304 -0.7299792703575857 0.4990809902460248 -0.9594041998267934 -0.9418850322825646 -0.36678703913467575 0.010737592022980622 0.547809688241084 0.3566133815330558 -0.0986739523277562 -0.46879880692093345 0.967987981681842 -0.18066873820949383 -0.07981216700740483 -0.6803418096250877 0.5706521680702809 0.38181186904555 -0.5452281153470063 -0.8048552790251197 0.3900003084474746 0.2980793928249581 -0.45733782496067776 0.9056979564885944 -0.6733717633287243 -0.14334554159116453 0.8700537714903752 -0.19507998611808725 0.2702472615944926 -0.20426994210975835 -0.4529602733445193 0.967343961831266 -0.18424576569433862 0.8305802969520201 -0.5305577697413126 -0.5738887999011251 -0.9511244300858605 0.3025760663297924 -0.27407469762284026 0.7571600960227097 -0.0443844871501727 0.9223132978842673 -0.6457050227853087 0.7285622179873417 0.5737900049286214 0.5483208483472807 0.6957824307550441 0.5257795572578118 0.2323094470253054 -0.726845552422485 -0.9349503061204983 0.8534298186464209 0.26585447024683667 0.6153963251302047 -0.023519785528167397 -0.794213365140834 -0.7272056281748445 0.4004621564098193 -0.16364367306766112 -0.6027036186118184 -0.00012454633819788423 -0.8964788898600443 0.18096935917900345 -0.45687929917659736 0.578200075973427 -0.3618517629990739 -0.10018520723570708 -1.0036505595713694 -0.8369841919928319 -0.23898381756351939 -0.017311370309785228 0.20905397883479937 -0.3936102344029537 0.4059880283451889 0.73943071538053 0.538018103816362 -0.9523468745696645 -0.0536650167188021 -0.8060973783909922 -0.48575684639455496 0.9529643640508373 -0.7178559636444501 -0.032376461630182374 0.25869137887566895 0.36809118369164595 0.10877641448388883 -0.9963299663176542 -0.31809104339289707 0.03793113531083936 -0.8339107764811499 -0.3157062724696045 -0.8986198112932515 -0.8506738821582965 -0.22602367601633125 -0.7356800720039821 0.1434841235018804 0.3517982860089115 0.5907065081321462 -0.5715070470677163 -0.6612925361827984 -0.8120009361744661 0.25689348922809285 0.39180398082786544 -0.9357667616350537 0.8837631378409873 -0.9297540519832864 0.047638874324653926 0.4220089409552857 0.757105081557243 0.41475195097138673 0.5830382704068299 -0.33532252819495006 0.6510176556940053 -0.8161501036489096 0.7927462176053842 0.09512456047588617 0.6120198073043304 -0.0982362054955578 0.30053041114362355 0.012836725751154335 0.48134349854378305 -0.8095104794220069 -0.8484418171697841 -0.5276496025058074 -0.6628339507124911 0.7142359024808421 -0.5369032823164458 0.9466464741257128 -0.3492137540639335 -0.652489641942707 0.5951067721405028 0.3451689173291783 -0.019011251407201325 0.11566776995515947 0.4215575935927084 -0.5394105781372658 0.971409229538854 0.9618772939441272 0.30879866147751067 -0.5962381037670588 0.378835866923946 -0.8728993170286063 -0.9646145648816472 -0.4943881578069132 -0.10967436501238856 0.7168046630751658 0.4260941660842783 0.48352673514183303 -0.14513174012072408 -0.3439221236347653 -0.22680962786892214 0.9797051117350565 -0.8973797794009961 0.7437796186308513 0.1224279694692457 -0.09828031715841236 0.4192723581264605 -0.06449209497469442 0.7626375987535033 0.7884069203044872 -0.1926315990276316 -0.428946305163328 0.19872765958062721 0.8499219195899919 -0.5599864088819981 0.23528971063692167 0.2274549680347091 0.44880875270209136 -0.7220564126064078 0.40871530634033104 0.8515606612612858 -0.6091691187732718 -0.5003336648675655 0.9313585342263022 -0.6607548354337637 0.7221406315654397 -0.016381541180225053 -0.4823535473029923 0.7392886590359431 -0.12938397256774045 0.05408407507766136 -0.27576285876977075 0.19232854495033297 -0.7001066416090788 -0.20962740511962868 0.9316859029503672 -0.4865256565930488 0.3168662793502686 -0.3840116944038113 0.5674096905395808 -0.7368014971491996 0.9140858133086333 -0.10170092163557241 -0.5537204805963648 -0.8139568086981566 -0.645752874996478 0.06412955149069632 -0.28898015298035906 0.6824885296320832 -0.13876458848169712 -0.5057101358021571 0.2072122343152291 0.44240098246542864 -0.6380219815824447 -0.6339816654341769 -0.9178663233176543 0.485280422900349 0.33027383507035446 -0.06597865335041751 0.6930828640891121 0.6203833048168623 0.16160363613610057 0.707665381404364 -0.567693163466058 -0.7745452050748663 -0.4672365864324203 -0.8771867492895774 0.048175267588237064 0.8750356941405534 -0.9464280337793076 -0.7562442815209683 -0.06965762770476518 0.877677591576646 -0.37068697353558144 0.05240078039507326 -0.9144953059749997 -0.6878105158269444 0.9758601064605977 0.933040526603837 -1.0022899384958532 0.8846586185271315 0.2499893203466954 0.7065072093483656 -0.06878917426258446 0.062244548323204946 -0.024876006014908567 0.3400454271134451 -0.736417390247579 -0.9045992944740434 -0.3582282942736812 0.428084570606503 -0.6019449576133971 0.34785400629015667 0.9347432462118266 -0.8365137310744428 0.32478334184880936 -0.11375831512799454 0.7595276121522201 -0.6546146838336632 0.40763281518982836 0.6601028214492466 0.8886053311810732 0.3533183622585365 -0.027354610730178638 0.20270866623959163 0.7322624807537771 0.16851714796512368 -0.9521553194949545 0.8395018392541505 0.4030101684536592 0.33677086761759845 -0.5490717310398268 0.3092282267783465 -0.21903628445129927 0.31656336080960307 -0.7894589296313863 0.3469087667053643 1.0153942269965532 -0.8946667896081324 0.9284925382238403 -0.17794628047013883 0.7583719544309867 0.5800666939984453 0.12174015139085198 0.4685730970443641 0.7681705754243175 -0.19088565891206424 -0.3474436598738097 0.3613835529555111 0.6299028591015721 0.5519365450782572 0.6190307462028146 -0.13945054962174586 0.6110036348960036 -0.7623849980621437 0.11699590118710025 -0.9777121554259796 -0.3240044875718233 -0.2818885965866343 -0.1830642323933033 0.374842693412537 -0.20961384058216115 -0.07984682880042022 -0.5339308960763137 -0.23303528781357627 -0.5344390598479546 -0.8862294064160904 0.22922487473052483 0.32414390205479127 0.24053187096368972 -0.09082143622199851 -0.26825484235364877 0.7243609424893923 0.0555892113576617 -0.05721231375184234 -0.9382813134807962 -0.2979129009808957 -0.2354872205228639 -0.20290617711013204 0.1439793458856083 0.07273030599201456 0.2303881275693001 0.511456355612244 0.6095213738105941 0.44664046507594135 0.8896388314303899 -0.9303983126375029 -0.5953813006081831 -1.005634855071041 0.30564741711191296 0.776937387281448 -0.509558691757249 0.8260586857145173 -0.8928995182072768 0.8399023218861944 -0.27620689141517746 -0.806023473829225 -0.03984768771478497 -0.507314657147129 -0.44932532484595517 -0.36565799737717536 0.6052274576619996 0.05783258065830697 -0.39988739263075634 0.229653415875726 0.43632442604999266 -0.48125930345603896 -0.18760327509243724 -0.742158212166997 -0.6558106606875225 0.3755367929801582 -0.6222549942752865 0.0367375837112753 0.4417587504474296 -0.8061574608460494 0.15096109507782354 -0.5017898258181017 0.9270301128445397 -0.028146708505132557 0.6138647791924936 0.08322105369206304 -0.8870028927391422 0.2304470414433935 0.8812226367581071 0.2315497532425814 0.6200243462612613 0.7711596267224246 -0.5356914403956379 -0.5714105580768649 0.2264871885162389 -0.19267498714137932 0.6848440094958226 0.7831997986142314 -0.31438215691539173 -0.5537860061250947 0.5790105741504903 -0.44864885089639667 0.6749017363299431 -0.12501757061690183 0.36695335634006077 -0.8277016803222903 0.2688683872167297 -0.10303501242263818 0.17255878834952385 -0.6578958601107583 0.4559900258604385 0.7507287171559791 -0.5482805311034723 -0.8041800232425889 -0.94176116837562 0.28280123476587854 0.23336355874098444 0.11275171773557266 -0.5487261152590907 -0.2303835034720681 0.1591293769412163 0.016526469724440482 0.9881152500287201 -0.7233159611024367 0.35965891624383517 -0.2239947160000347 -0.1253450456258039 0.45967893703862367 0.3537187830370604 0.9674223592353484 -0.7419236054358173 -0.803017349253326 0.4763756033635234 0.15195893001252397 -0.4249690790870808 -0.8511515459743318 -0.7912877425167497 0.7679225097018998 -0.6136233767464814 -0.3679869686341183 -0.5293203142651676 -0.26200029985164347 -0.8635271321198553 0.020011859961628076 -0.8817659899497533 0.5754424417677981 -0.5649511149245353 0.09969947709089146 0.7554258244541979 0.2631102058326468 0.05078959169909216 -0.3702737089180002 -0.36379755714370043 0.3424305159308595 0.964102662778888 0.3112386731206197 0.10667680296785453 0.47054421681203645 -0.07691071315173213 -0.8746412048990312 0.13240936027321126 0.9141311098432201 -0.6267857335118272 0.3754876937685561 -0.5996215343396298 0.05344614393027212 -0.8029266741396582 -0.09987910740952778 0.4915041646556253 -0.3193340530937136 0.34270118823289963 0.5907483580266633 0.867367281467147 -0.557568194830213 -0.1849263180367572 -0.672241335530999 1.0003838457718195 0.8520499958051803 0.07015444500316208 0.7157303107031431 0.0315299454151758 0.24563455041192675 -0.8067357355643116 0.48661258336082264 -0.7509361651995167 0.6759151588395877 0.5663762878205307 0.4142616299451364 -0.9241639552366423 -0.39302630744588923 -0.49234498109188035 -0.2964163750522797 -0.8347139772248263 0.8875658453956652 0.11356417306016385 -0.40603681698421673 -0.217083877326552 -0.07920207638062782 0.19687203824449417 0.05144216193061625 0.8625995600779125 0.015639347867803598 0.9620059702008267 0.715599472903599 -0.60809075218734 0.8916241625698084 -0.7421926765067152 0.6433689469890579 -0.20979522219616886 0.7580985649239576 0.7389701348144162 0.591849041534161 0.5620315956183861 -0.412120172060674 -0.812030780904236 -0.22421390610746902 -0.6428690320754172 0.4160271174796324 -0.2927258669417309 0.9603136593079911 0.3142902197411372 0.6301340180507295 -0.7504384954108899 0.7128739611162922 0.8348399169487289 0.0010366845055552257 0.22451970694997547 0.5039809954225435 -0.6595422952318635 -0.03141622746420446 -0.22592753838567656 -0.7214699952703916 -0.2912599486115669 -0.8698478413364191 -0.9348108705994363 -0.6956704113839975 0.9526283138197076 0.08500760508877694 0.8945928689247802 -0.10327119683395312 -0.35293156407705484 0.046137712423293585 -0.14789437736583744 -0.8004211882768216 0.24522842925028324 -0.5472151744357803 0.23098299137442535 0.27325726611886475 -0.6766412063419459 -0.871532356748005 0.5839848821182794 -0.07388347069869149 -0.8625605058609931 1.0027869989304847 -0.8700753782105877 0.4030197228352176 0.9503924391203462 -0.4845932450714387 -0.7245630375532213 -0.7685066770719223 -0.36149807826573466 -0.775787269161158 0.3829979919678945 -0.874565903446576 0.028967685018204167 1.0190381413145393 0.6318182239406882 0.24548729074856898 -0.40874557949579066 0.25866971499854885 0.03546211093235897 -0.14802418202446646 -0.7210153796733181 0.7491002674980477 -0.08914910912307886 -0.5842021997417601 -0.23263056281323574 -0.17451560137695474 0.6376450993310036 0.46370444004454286 0.546525503101102 -0.9952219355262065 -0.2013806559493682 -0.0634537350113157 -0.9385869951868517 -0.47451678420258164 0.5514582117433675 -0.7436399375324098 0.061875888756761144 -0.5428434064749572 -0.9549787787813433 -0.4908980948592219 0.9690593895445954 0.5859972098528037 0.9505341482181373 0.008710567096962196 -0.8071495229581745 0.06205082995318275 -0.11097120360964835 0.6690762665201281 -0.8303115191890776 0.014626256042244485 -0.6714146460448239 -0.3599763943273861 0.46052734641018184 -0.07380082448396055 -0.2671523663686592 -0.20765676584091983 -0.09593258269036938 0.5442822546124652 0.79591523854631 0.8872760894488302 0.561021868709673 -0.35509837476077816 0.38199304600120326 -0.1473112716583164 -0.504308085892795 0.6579914509402447 -0.9310072978273717 0.7750685890691597 -0.07536713995598406 0.28259401187443983 0.3453967635964234 0.7785610107914546 0.30675286453130596 0.2514636218218642 -0.880687524804935 0.053823628673297395 -0.6954386078634577 0.4741058611128579 0.014622128970851129 0.36287524662386283 -0.9395190591406163 -0.8045363451876373 0.4391383606531078 -0.8545384032697942 -0.8759059654869361 -0.9792262110193397 0.8899992422764094 0.45145206927983295 -0.31958878557478365 -0.3879183505390814 -0.26170063109671077 0.5481230454439289 0.31937090831818604 -0.6453985729308903 -0.642644988111436 -0.7882604481688683 0.3275958095689139 0.5159243935405026 -0.4912707336459131 -0.9877954368091173 -0.8191466486907346 0.9447970505622945 -0.4149249144231092 0.5121491175223691 0.2689225439319527 -0.25654526124242577 -0.600032785969912 -0.760365635760434 0.2413525992303095 0.5475588090606222 0.3036785546127554 0.07704062664958622 -0.9011714872025405 0.9060533044303333 0.5870212192756972 -0.39892399486732755 0.96080683134487 0.16640633095724874 0.16741819836512423 0.5142472517380041 0.5988855927493478 0.2879970428031106 -0.7398720002615917 -0.32028490502546597 0.8385607114490317 -0.53259257761543 -0.24475888283601793 -0.12165374939281107 -0.10876497550822416 0.2545106243152642 0.8562578556525692 -0.5011570629582448 -0.7458917812667354 -0.6234646199618734 0.8056245981902876 0.31330999069435467 -0.4179924882426271 0.6255213544967557 0.7550952489733204 0.7054481116479345 0.8308419021589589 -0.5247342598225408 0.5273628139693267 -0.04970941420205219 0.6668003432202639 0.4490154138215535 0.5511690154344343 0.33778580688027543 -0.6469176128945227 0.051834027841038216 0.947261882154648 0.863510523345649 -0.9166340121347282 -0.6895401613192684 -0.7238372861828651 0.47127723989835996 0.6708190642844704 -0.5636077510026956 -0.028685848398083358 0.6904406057270698 0.466263199325205 0.11928036996542887 0.17119440508281 -0.004575021876496021 -0.4276575458129369 0.13145432094641651 0.35584617927594836 0.7455494405011129 0.2686332699696242 0.5280428246321358 -0.7106565771469547 -0.06638165037345267 -0.9875898271715702 -0.48886553244224756 0.4767801593047276 0.9992800991009101 -0.8102582432356854 -0.22273402990845464 0.6096376537318188 -0.5874009971516493 0.09179984519148922 0.4381833006522005 0.24298024899517104 -0.651222076435542 -0.29568127886689677 0.5455658991609695 0.1027225159840404 -0.9620371606642719 0.5142237466947458 -0.9358534774028433 0.45138031352430613 -0.5827138952805725 0.8989335601899285 -0.27808238045695316 -0.350334196153103 -0.6855782472647218 -0.4021092467841855 0.7721023286280376 0.9657237302046152 -0.2661556003875836 -0.08397912787880356 0.4433138247940408 0.7874903200009512 0.17965649909059914 -0.19321390941535949 -0.14259191969865112 0.3851968573538527 -0.9974014304941172 0.2192572877420909 -0.25920556008486223 0.5962667785955355 -0.82535248326225 0.19272602420097534 -0.034292349435830156 0.27536517156627743 -0.8719148249555793 0.1829705881554174 0.10946796458389152 0.09079336523211388 0.2040277442051358 0.35617307727637004 0.597283282995791 -0.4790335161870762 0.6178698082120738 -0.02026705115475492 -0.8473762255671238 -0.8793186260728838 -0.3051714750150747 0.6008630661268278 0.4478440143253566 0.5829591374446627 0.05306183369861064 -0.10887346741760134 -0.6834148628498566 -0.36206508486536737 -0.12251827857179566 -0.8290685581508036 -0.5351579044339183 0.22001589323349868 0.4690790375640894 0.9993814169364926 0.8396717262811741 0.2660937273113752 -0.12641193300782316 0.2856656924592024 0.589056269348348 -0.7446682135720947 -0.16538730023103013 0.7064925226642501 -0.22227808189150394 0.14999467161150842 0.20065298861403932 -0.6277092631451422 -0.2884473672340603 -0.3429514928475581 -0.9629398872333637 -0.9331162771071357 0.6398564631146346 -0.49186829045344493 0.04947926679283441 -0.431263800180643 0.8608395781725785 -0.4602974418608563 -0.1517421854712557 0.7726383145831807 0.6457590633799566 -0.6251291657477694 0.573243933475491 -0.11071148088833553 -0.05624984445763642 -0.7309258601952511 -0.8075377285964056 0.44379013420815067 -0.015953382198849234 -0.1341307007942253 0.42612633540047906 0.5572794317552389 -0.7035779316395142 0.25045970932015144 -0.7562016427256537 0.4992978552850264 0.28340211924478853 0.9191890560423596 -0.8639090550393281 -0.8954116846304158 -0.44031035543022456 -0.4665360231962049 -0.4989717163906716 0.7870013188274387 -0.5125219414913433 -0.4527998940574592 0.4888970346857577 -0.09393675276603332 0.5592216949320951 -0.8369689935404588 -0.04425693479681383 -0.9433180442631701 -0.8596445592611265 0.8306567878287725 -0.7352768019225953 0.07835609176225783 -0.16995669411085468 -0.32382328157926027 0.787528554234096 -0.9258547675715817 0.3404291692309053 0.9396416008921095 0.12039135400187571 0.8687331239630985 -0.9049716773171678 -0.1451771862363499 -0.4466748954684063 0.4817902210151126 0.9691086371396138 -0.4728585115746137 0.3436232442793962 -0.623655716573386 0.1433694984390798 -0.05465157956583817 0.9294285002355309 0.2359433483807113 -0.3096506522126596 -0.7635734476872903 -0.6873998407948735 -0.5586809300281983 -0.4843779965258284 0.7105468945830913 0.13582418668230894 0.019545638629734612 -0.7860350377376906 0.7329881145804029 0.45964834081335126 -0.859152857246915 0.4058395642044567 
