0.10843456634861592 -0.8075027304869669 
-0.08667918708020075 -0.022905666573386916 
-0.649801603582408 0.9109621198521017 
0.7172819524601899 0.3602293974332333 
-0.09968794844676224 -0.153704488199464 
0.3129256545487401 0.12341966782888715 
-0.9151133220429926 0.044141886781695054 
0.6168111702185364 -0.0696813529486442 
-0.9219303194482024 0.5836665950369204 
-0.6293736005064072 -0.4762519416431837 
-0.7084275356088248 -0.3191354519649814 
0.5244206871158622 0.050699618131494074 
-0.60473861315956 0.7632644742731295 
0.7639932911044155 0.7705823397059474 
-0.5608529077862356 -0.07997254511028941 
0.9463706183553768 0.5662905297298021 
-0.9541297357909614 -0.845971209819154 
-0.059194870183972494 0.8414562325094647 
0.05609447005023439 0.012338894718503102 
-0.7912253595780817 0.33921971008544133 
0.6639961755894107 -0.21662962975160818 
0.5470722475892996 0.9579898644688009 
-0.621119019821423 0.06499647221160619 
-0.4659783433063336 0.5989031226584932 
0.17269601607460558 0.29512424143196214 
0.5586302019587671 -0.20504871152375803 
0.8453965199934251 0.09838126514805472 
-0.689904446330881 0.4103478202843484 
0.6092855999631708 -0.3426387952824174 
0.7218197859301234 0.8468714288823407 
-0.4202445074238977 0.9915789855943894 
-0.7411628247457678 -0.572958366832021 
-0.6269595820036813 0.8215007176070689 
0.300489283785723 -0.6895678105877607 
-0.12202083019841009 0.23815119728112222 
-0.8282843116359289 0.7784672510311299 
0.6235639118628349 0.04013532070065733 
0.9557308684588591 -0.12784565092532746 
0.981605021722776 0.35478174197307305 
0.25500132979811785 -0.6498580385505325 
0.7461223175245463 -0.11953821697521681 
-0.6672103461862108 -0.952194983263432 
0.08989399082497185 0.07823323497444448 
0.40967441994657855 0.7821428686474824 
-0.8624805543567184 0.48432487229177124 
-0.6460019110109133 0.7269952532880156 
0.6143109638652477 0.1006997055242775 
0.39453439562510106 -0.35822541289471965 
-0.09594299075812246 0.652606260131913 
-0.12211989552805853 -0.2677287842504277 
0.013518393012908067 0.674075673400571 
-0.338848031164764 -0.6420555121385751 
0.414947650021155 0.6581557289325539 
-0.7900394457449323 -0.507444358403773 
-0.7428117002655091 -0.29322466634221295 
-0.07573869666210739 0.5152646329584425 
0.3091661201456257 0.27520125835552445 
-0.33226407002884495 0.7006811174541389 
-0.07646151033828068 0.9851411907580724 
0.28490827180001965 -0.7182597222920325 
0.37409633230196965 -0.32102864805272774 
0.3595347855130423 -0.8376383096454256 
-0.6460499459157599 0.7244195179095814 
-0.5777216952202935 0.6898986158836323 
-0.4179854134183907 0.3179985420404924 
0.3625413344759914 0.03784427987633305 
-0.3711162275461392 -0.5398913831619814 
-0.9277578412178734 -0.37804008377282033 
0.3004457600939349 0.9068438490505968 
0.7426725117098577 0.5400469961712406 
0.5543384749210397 0.336944696358875 
-0.511781139807684 0.8336998795923249 
0.3108457443252485 0.14443527081155003 
-0.8040752616413259 -0.100817796888617 
-0.06545706376328385 0.7477733662047505 
0.07819474808809974 -0.2291003698705789 
0.9188554183605948 -0.7746621665847125 
-0.1356930536673703 -0.879104404966839 
0.49754243757498057 0.8648012145632329 
-0.4228799901429096 0.7519874339375302 
-0.38988355304697575 0.8409371734256269 
0.4793461557887029 0.6194538771333353 
-0.981663004836679 0.9461616829631784 
0.457744984639583 -0.35719868669505234 
0.6627120402280208 -0.4105354517583474 
0.7127510890223393 -0.7586442405603585 
0.4236329471787338 0.10016751301483455 
-0.8328679391099587 -0.5062088218249837 
-0.9975659706393654 -0.0583828839766112 
-0.4031545583618626 0.216412953728148 
-0.4124766428026751 -0.37132499024251636 
0.4872990080242417 -0.8890224898769346 
0.7734364802670427 0.709403458191282 
0.35450698923011 0.2100184236655035 
0.7644684024195104 -0.6218020524983493 
-0.8758479056549159 -0.5090958525240437 
0.6084021497890746 -0.906100061703421 
0.18850166654239778 1.0189960189724623 
0.722892095391643 0.07905665457006096 
-0.8645707631574631 0.696093628347813 
0.19427513549819225 -0.7382396977538368 
-0.8148432816325509 0.8353180326590892 
0.3017801692061587 0.6739679058124781 
0.7443794147613034 0.16006407897305916 
0.02409528902236664 -0.1326157540596108 
-0.39337366942763563 -0.11107572529832296 
0.5550355144404884 0.22841058344816695 
0.7810847148120117 -0.10098782632117387 
0.1768838017229287 0.2796130125354008 
0.15306436224523123 0.42764826497153385 
-0.5231170617387372 0.05144763443461865 
-0.829569723105748 -0.21288566274998408 
-0.005818625946407165 0.3200838510345774 
0.8978967771839014 0.21241951741722107 
0.48029767924910244 0.02733113590149816 
0.2716813402067158 -0.8465712798675837 
-0.4744850652655568 -0.25894205366537676 
-0.07735072118933174 -0.8860725611719241 
-0.7113337425042077 -0.4335421621035022 
0.9411182559222347 -0.31873166006159326 
-0.05593785720864943 -0.6011177793727711 
0.24167668531967 -0.4219582089649989 
-0.5755231448611626 0.061212220787246606 
-0.992008542476807 -0.9544348478170325 
-0.5490443841176997 -0.8954757187143585 
-0.767537561777594 -0.29574790774838816 
0.6157337244562346 0.15908774174212428 
0.043155487066839915 -0.39650564034604263 
0.8629403158302816 -0.17263991036607373 
-0.8211206405354856 0.2554631556769737 
-0.7733156309119157 -0.2871212349932247 
0.021305571650014368 0.7781288910464262 
-0.046433347084422254 0.424956719628753 
1.0029407792478091 -0.7080691913641318 
-0.430864069558008 -0.1951032870460196 
-0.1964389688270546 -0.16381663071528063 
0.8308100708727812 0.4518086479373259 
0.18473476539106537 -0.37445642627380543 
0.6270983668762635 0.9288468524068547 
0.655780634487074 -0.9841014227337074 
0.24782031276406327 -0.8965637442584006 
-0.4738796750418635 -0.8510100011368437 
0.22305425575539714 0.39752147041793623 
-0.7815385747162186 -0.20914425627237404 
-0.12882478696510627 -0.24734026141499588 
-0.7852905199238208 -0.13782105929866154 
0.5045174073152202 -0.8402234963269338 
-0.8154164319573423 -0.2639051832774337 
0.8791348325598085 0.36830686557164416 
0.3306494352421902 -0.25703471508124764 
0.19372028361318458 -0.9680730266450757 
0.263983640045131 0.8519166459931271 
0.2325192316696339 0.7793889936805329 
0.4133108590710466 -0.7472560204474084 
0.8193679171162854 -0.8541958451555284 
0.05939394370529045 -0.6905890288881474 
-0.9528023286762679 -0.13349310865703912 
-0.42541098231696345 -0.018809824271518043 
0.15227442681070363 -0.8855890451456182 
-0.7316319811073799 0.13806750858470154 
-0.34947073095391606 0.47279960545992084 
0.32745903883827093 0.7142162979688289 
0.39231700105828693 -0.12157350448873072 
0.3091885016404622 -0.4393314154983085 
-0.41326558760435517 0.6016804302555676 
-0.09671296625019238 0.6114092730779225 
0.607274381570607 0.7300684152726986 
0.8274077425718076 -0.11077727400509337 
-0.38599033086391693 0.1898555536119725 
-0.2557047830651131 0.22051384887643355 
0.3744253554953354 0.38296024101340503 
-0.239678788428991 -0.6298466869028311 
-0.11489181359982686 -0.6886244845951789 
0.8021657012614952 -0.2750504730774071 
-0.6803199835904402 -0.9298206577769739 
0.256850806616995 0.2927260292187214 
-0.3068466298107918 -0.8381337984833999 
-0.2210124389615316 -0.364894328145044 
0.3191517967525892 0.21092326689566396 
-0.295148267030278 -0.5410476825594801 
0.9659405263784928 -0.07003045105966053 
0.3825312298012318 -0.6865117724493076 
-0.019403537243402092 -0.932589534492127 
0.004950744054201127 0.9367515465082307 
-0.2580113757345656 -0.9022746010941133 
-0.9124772648654284 -0.20077513584211593 
-0.6889967787976684 -0.9438919767292288 
0.5023514791742428 -0.06682006614051267 
-0.45230414160502563 0.8119150881142104 
-0.7584286644683363 0.9418021725074912 
-0.3720816175374745 0.808306068845746 
0.1844066211433647 0.6573267205595344 
0.9369487156390386 -0.4219699220304077 
0.9293951961382333 -0.2025849280081657 
-0.22817055000997727 -0.29423806183673057 
0.05742228660486514 -0.6739596801247262 
0.1310822327328597 0.10459657744564069 
0.4975251322609246 0.6699344789345527 
-0.12623495917964483 -0.3872299978365569 
-0.45830207937427125 -0.5908439177376913 
-0.8967707838737179 -0.30170175470355787 
-0.46356736077929234 0.9634524980983823 
0.09621593703757897 -0.2812775913297269 
0.14298449800513643 -0.7168571178185246 
-0.0867329864167263 0.2767535249096208 
-0.04234721826177504 -0.16914313788541732 
1.0030789134286493 0.7957199144238007 
0.22239728889072463 0.14831798118245443 
0.21015898509617534 -0.5740258111662964 
-0.24984946356638646 -0.903798058893494 
-0.045256797392190046 0.10596546326192177 
-0.5590129395271488 0.9394838447461409 
0.8378373196440754 0.465629540907104 
0.053575662880714206 0.7643362694276309 
-0.7143493548150539 0.602782160572366 
-0.7821638366731968 0.6070942169876666 
-0.43270009682376387 0.7833652588475355 
0.9021918255228677 -0.6847520485045346 
-0.061785814297325846 0.9817551583174033 
-0.01480729331545755 0.7440604511217077 
0.18966174728509144 -0.2300283723905805 
-0.426675446104367 -0.5746490269708888 
0.48866571747232385 -0.2065561618095635 
-0.01718681656853567 -0.0020887469900618535 
0.17353673792923974 0.7627064013734751 
0.9589972909081603 -0.15823738197096884 
0.671486289015794 0.5429837117770242 
0.13682374253635723 0.9327835957188998 
-0.6288829407780414 -0.7795110634837491 
0.6760891157892372 -0.11314909978121937 
0.703072925284339 0.8012763405911146 
-0.8881278416747055 0.7840111055845872 
-0.13114516849210922 0.03201681627908148 
0.2451166575655109 0.8712424668515772 
-1.000396066268715 -0.029053286766053416 
0.3768130460178847 0.46007264924049895 
0.3588975017853569 -0.7119268888316926 
-0.3952100711121235 -0.24768338776501297 
0.5900188881066569 -0.4311112792179864 
-0.5939530817642437 0.9399513605980552 
-1.0187788589900932 0.9947979529825565 
0.3225276725822928 0.6568332457325118 
-0.420530025704421 -0.964706315560851 
0.4652355946687195 0.6894772975128359 
0.4733977453034236 -0.6831906646890411 
0.4911361145782258 0.542432540634963 
0.3225201785930121 0.5558913481583226 
0.7113774986148416 0.24245321276787324 
-0.8078469681425925 -0.011130048949088095 
-0.8806390606410918 -0.18329717740334478 
-0.19803436730120147 -0.8452047845660711 
-0.3381523620668 -0.7640160748666308 
0.5960996682983706 0.9007731622224283 
-0.8319634379602797 0.9415524640427032 
0.010801593174404671 -0.3817001204924567 
-0.8538193760466587 0.018176276184223662 
0.5952031836191658 0.42515490958345004 
-0.8914446815525393 -0.8369037761815831 
-0.19695911270894872 -0.39173393225792813 
-0.5761766186757432 -0.41997867394521016 
0.5890926592831564 0.8709982169615753 
-0.18960246019515975 0.8201555101752909 
-0.3942933613879634 -0.02840596945025424 
-0.5662839466649554 0.2961761267524465 
0.9231468377996898 0.20797474125664211 
-0.3186192139929209 0.3007255299948668 
-0.7667382287189719 0.7891196976370485 
-0.024723254689106047 -0.09439769861734908 
0.16700870766044773 0.27255805692487767 
-0.8540812562703749 0.392004091484989 
-0.5006282997122653 0.44476410662316385 
0.6210070405400575 0.6134748506354428 
0.07900819038075821 0.043891805028517 
-0.744464285629871 0.5520697765350657 
-0.4553549319504639 0.013910357797839282 
-0.4249988522513633 -0.7104198293933326 
0.2224567250447512 -0.8885639133791078 
0.5200584800905739 -0.34231245361139473 
-1.036675143843253 0.027836217575162584 
-0.9077026924788787 -0.4355353804803539 
0.4248248762656133 -0.8611087623419831 
0.6950883301377393 -0.96361666301027 
-0.5008118202586229 0.5070596435630398 
-0.3600652829621219 -0.762837996216698 
-0.29783881573218013 -0.4457191253690187 
0.693587015253842 -0.3383082599376728 
0.5417311781091108 0.7956565640626361 
-0.11263273764710785 0.844234709216729 
-0.2526768927003522 0.9525594276027541 
-0.8066138329701177 0.3958855317547108 
-0.02961778559190071 -0.19689768693873694 
0.2613265933864135 0.43937593451312945 
-0.9934358389233576 -0.654857531636683 
0.4332277243936013 0.3587132785406384 
0.8949790919117294 0.5410294130005434 
0.8646614370518195 0.41529747928779315 
-0.42619301660404313 -0.7820950718519618 
0.5307343150792438 0.30696860796543857 
-0.8853369219633465 -0.25792050000577 
0.883456475057727 0.023027790963611044 
-0.11502685402906651 -0.04701897493790415 
-0.6015010089403658 -0.24798380524785707 
-0.29006620791034887 -0.8836728765705814 
0.5491718669123778 -0.14669544043011779 
0.6510739556313668 0.716742179924913 
-0.5775776591081656 0.3224279228576992 
-0.05885345812607084 0.7793507512085582 
-0.5634172799884385 0.38223119648175935 
0.19274369801449573 -0.40309793212090034 
-0.7032534519960079 0.3358461635212899 
0.5012598494224959 -0.34073461415594974 
0.28657216395960894 -0.17885148572860904 
0.394686474627079 -0.5787985257374688 
0.7904057745291188 -0.4134775441980025 
-0.2980898593600107 -0.8813023813100839 
-0.8152611642029088 0.03711492256039123 
-0.49065799683702227 0.6871830272439511 
-0.9859989231727814 -0.2166683005868148 
-0.31214069452777937 -0.9282287678141932 
-0.7468861086096745 -0.14428438763502996 
-0.00443409393883038 -0.16992877413678611 
0.05199951664464528 0.20213977262577262 
-0.9972330558113703 -0.06015800304647426 
0.9079334444921797 0.05926808649232866 
0.3801624869204153 -0.35852598659029444 
0.5116203623841671 0.5504182793099337 
0.060791977009159774 0.975658027155129 
-0.7501718385142682 -0.9491440271940635 
0.527606253383619 0.6335648032646656 
-0.7554499702250275 -0.4404120723729939 
-0.9762717116656955 -0.39190201197670177 
0.5660032782535769 0.05513961922926545 
-0.2904748865089454 -0.21945411735263243 
-1.016060922629058 -0.37490943352367206 
0.26568899550222097 0.9724733668319652 
0.6865045250656405 -0.9223663573852222 
0.8192200052274347 0.5845140318840165 
0.5356837308276171 -0.07577984213320925 
-0.20353107591419553 -0.37302786888563866 
-0.873529955243402 -0.5135077031586361 
-0.49852908683599156 -0.009139628354918385 
0.46183974482081686 -0.03989021553342094 
-0.8817881532630979 0.9457151712994657 
0.9057222559223027 0.5975699896811815 
0.9523187933043609 0.1040542557684053 
0.9012536210302926 -0.8380228335057044 
-0.24428245351086042 -0.5258684461427175 
-0.6413034340728262 -0.6963823502116024 
0.26056905628440696 0.5903687762704762 
0.15006325747587232 -0.6909723912658348 
0.5972756568248434 0.28570560646796334 
-0.20403414693438848 0.3655282587913627 
-0.4899259650737876 -0.2961300145852105 
0.8240140947317138 -0.39254940989093895 
-0.08242890854980173 0.8055512359564662 
0.41630923843745443 -0.859042831218263 
-0.7393402325545393 -0.9623688486498724 
0.24773279124405712 -0.09035909352103405 
-0.7071596208441722 0.9335350022389692 
0.035477311655865484 -0.5040852669284768 
0.0031614818996174316 0.3831635925678739 
-0.866308373579527 -0.43894429761409387 
0.6252217453661141 -0.05642893850678333 
0.06046755331089102 -0.1236416456472555 
-0.8881743888944801 -0.6509686393088513 
-0.12168026541059139 -0.5614545297251371 
-0.9200896089974775 0.6900570639751354 
0.9309473033462009 0.5873402032163709 
0.6750479435747859 -0.496859355614056 
0.9093387150179044 -0.5776929588941423 
0.8798755563539566 1.0139800156716383 
0.4324213233811543 0.9980675214624742 
0.12123501552974252 -0.45476746130640394 
-0.14906178621704458 0.1965358404456339 
-0.8599811549829219 0.2750572127064555 
0.9673192427010586 -0.5933752980149082 
0.5592963474252907 0.819959111985687 
0.854461635260628 0.9425976375355148 
0.007032847286723296 0.9572689213516171 
0.5208558785444193 -0.6488401049861399 
-0.04779211817340694 0.46701549851320623 
-0.5123222261355527 0.294426323979061 
0.35035319666407255 -0.6532226866315527 
0.14657428886602067 0.5589640444728089 
-0.0009730196857012491 -0.9615176104388068 
-0.9629570875512193 -0.2678197912200283 
0.8225708020443421 -0.5245738830647472 
0.23282959324895477 -0.5373841050513899 
-0.37728982418603596 0.7042951079918804 
0.42307730666555193 -0.8062076130702979 
-0.14189103966928382 -0.933616992351471 
-0.01688172084184009 0.3529754228536251 
-0.8027151460072371 -0.4090222838242511 
-0.2349375768997954 0.8440681111219194 
0.9736457456885452 -0.8889650683924517 
0.5448755994786505 -0.23939607392878628 
-0.2306721211982018 0.5150878648666246 
0.8293975503981155 0.9221743194471828 
0.11774537230242561 -0.28157970585636544 
0.5462656052116617 -0.4921379407388623 
0.14934401408156714 -0.24632533224443195 
0.3374896889866052 -0.5010524191326217 
-0.6577862076155595 0.8462195394916011 
-0.772927573126614 0.031127198181528235 
-0.5592070284955141 -0.897053359992016 
-0.9087900524582078 -0.6331551043081323 
0.7214565272829073 -0.41488157044813134 
0.8880777218813711 0.19280933065052844 
-0.12967440217771736 0.16908513055079066 
0.03166485188441214 0.5485564769662427 
-0.4690733412554953 -0.277827788604507 
0.7542976662543975 0.8921799659169811 
0.7709400062344471 -0.15672625134628893 
0.5686418153125206 -0.02704762406715203 
-0.03201298305788231 -0.5808757932332212 
0.18613202245072624 -0.6050772191054983 
-0.31455857269727244 0.7416990401470508 
-0.622661579456325 -0.8426576568013453 
-0.8557409536280873 0.8990263904416079 
0.0056936534700145055 -0.16987254591386217 
0.6414359204397916 0.6901679229974916 
-0.362325223207994 0.39282536267371304 
0.5426284567738909 0.34080871603382823 
-0.6814030783072121 0.7762915315561342 
0.09563717087681842 -0.3981904297968448 
-0.14396981643883439 -0.9045101469218731 
-0.7533750330223062 0.5508383524891782 
-0.9952201941628688 -0.15512240167537092 
0.0610830037642234 -0.8623431455399733 
0.9384316421191927 -0.5192515655274939 
-0.4317002067824283 -0.3744999569114506 
-0.5169080511728716 -0.9770418329502332 
0.46622010813322295 0.9527554454581519 
-0.5527310669244531 0.35703127515660865 
0.4534160866752436 0.7190626348299408 
-0.14895015771949743 -0.3776785366595828 
-0.3698848733205397 0.4511187899499403 
0.6404858455005862 -0.6230253726612249 
-0.29074745557474413 0.8103469886588706 
0.6113369762545097 1.0008268996307634 
0.5305823606036298 -0.17642180114694514 
0.1487835789062784 0.32069757935010224 
-0.8199269793255372 0.11864847544144436 
0.4027117804077422 -0.645666266949978 
0.5810308221233099 0.18565328940745648 
0.9198982775642711 -0.9011857148262131 
-0.466364093464485 0.21206134462342258 
-0.3954334639826439 0.44570871427809877 
0.5352923739724725 -0.767023555782316 
0.008090104635943916 0.04364592364092575 
-0.2774687046823133 0.8745048915046708 
0.6603746423528084 0.41444495090822847 
0.44178294211704694 -0.05091223211868072 
0.8563962781828344 0.40357886156350664 
0.4662361215869708 0.7564831105964612 
-0.46442015927103436 0.6315554979696538 
-0.602437418612417 -0.27377069456750414 
-0.3628100515832057 0.9695436013084443 
0.7027372375064223 0.4316410281113615 
0.4132488271725191 0.14182660914048945 
0.8703873977877055 0.01620459319819546 
-0.2543761562663619 -0.6616893366913847 
0.5613085369725622 0.4795350649152769 
-0.22453326312005945 -0.9298534535169087 
0.669348152442976 -0.9714847133786769 
0.3947723847320613 0.961046304387213 
-0.152982280354442 -0.5115306247532271 
0.3987925913753913 0.6417260656932526 
0.06385082527895124 0.9538590016343264 
-0.9285478669323325 0.009187019240879304 
0.42982859851735716 0.7566635925929804 
-0.6325512834281879 0.6113428233444748 
0.099502375662118 -0.17590416627470445 
-0.7416244129774252 0.7393119408310104 
-0.7018432831588539 -0.3649830839679603 
-0.4004303973343367 0.7576991447367866 
0.3334302451063113 0.621804525215674 
-0.5077734826603205 0.26642754117022566 
0.10912829011560068 0.6643641999883729 
0.7938446133012104 -0.9608484988723788 
0.3336646222614606 -0.883371426972588 
0.08556366453238456 -0.41297564321610747 
-0.38939808561604167 -0.2732309924576142 
0.239125761427328 -0.3160361644626367 
0.46672871293597734 -0.17267988105501658 
-0.849399450965637 0.5819666910407635 
-0.4209983725925014 -0.09972780141932025 
0.3757831110532186 -0.3075425763463785 
-0.8633834883062825 -0.23499528012006063 
0.8531845463829084 0.2838993484142389 
0.31387655799794323 0.2785945708116939 
-0.6423559621930195 -0.15643617063904638 
0.5016642069050997 -0.7709551034468201 
-0.4285185444249519 -0.41443843316603135 
-0.1619350427277748 0.9754647953180334 
-0.8453396823931586 0.06676974754029603 
-0.6783757717890124 0.9500946204261016 
-0.7568711317861854 -0.15657843668048504 
0.46495149169291644 0.413922602509496 
-0.1835628106640844 -0.3073759760487872 
-0.21093052412862706 -0.4581482809218227 
-0.6140528520848352 -0.02082181068497331 
-0.48819891407583893 -0.4062202629304319 
0.2970326847241596 0.944540878467869 
0.22220922959888492 -0.8266380770412535 
-0.8588702581207468 0.9298300409230112 
-0.42092350513262633 -0.8107012558953728 
0.2023679436369192 0.26030685995169994 
0.30872862733085904 -0.45258266924144325 
-0.9909263918516908 0.9388993224986822 
-0.5107358771957978 0.36611591424591755 
0.3791989792787683 0.23365821537794365 
-0.3985526602493078 -0.4555731598301902 
0.20457231309218182 0.7457464572536143 
0.8609953337338845 -0.7660795766756578 
-0.7030782137786109 0.9189216825590087 
0.47895592471846016 0.7911852994435008 
-0.6263228502535503 0.17900422760665038 
0.40575760022900276 0.36922992538575305 
-0.2119617838854982 -0.9476133864339957 
0.18979402194322204 -0.46963627491096716 
-0.10991082095967482 0.9361712626621703 
-0.1852611739232867 0.693725337607483 
-0.6227916781520015 0.3563283799453217 
0.9191600388813062 -0.7942111784308412 
-0.9827058399736508 -0.11137036058674242 
-0.7928161508818643 0.5250582660328641 
0.825905270366484 -0.10632686082763598 
-0.474494938628582 -0.09657956926082509 
0.4672297178154955 -0.964596008884071 
0.15649938034543084 0.23252670152126084 
0.25480809184309194 -0.5145602668030801 
0.43409248939128187 -0.8075722149458292 
-0.6149633138140098 0.7704020714653029 
0.49513245323754346 -0.9542076586018902 
-0.4822909961345318 -0.5549698626434081 
-0.4718405098520321 -0.4975327470835388 
-0.9038493050745616 -0.06278549393778494 
0.4771190912430402 0.23804206948836673 
0.31864946489035506 -0.8153090071726519 
0.9208016654907486 0.6917546537960659 
0.5990738191448355 0.6604549407783342 
0.8663379124418198 0.11643057067329153 
-0.6335187946934281 0.2406363811715673 
0.4887713813118201 0.49366615639813716 
0.02965223413080031 -0.8423114450345018 
-0.26489310369661767 0.8705075504374304 
0.14019749915155155 0.08495011188921016 
-0.45345199557275734 -0.2410445977654569 
0.8100224913990798 0.3517047967355832 
0.5478247029314237 -0.07849367512808769 
0.22914006446331112 -0.5006558984838615 
0.371619533060443 -0.13595182376184495 
-0.11177255741509537 0.3181170231951221 
0.8773332124545122 -0.8602038238819518 
0.644083098283114 -0.39373912238137593 
-0.14190756445218813 -0.9347284528877404 
-0.41910755569145053 0.03183352182937371 
-0.8858676597805003 -0.003740296063250454 
0.8483632510327839 -0.773884900562379 
0.5545389968366523 -0.15841069726024787 
0.2758978382935589 -0.46129712207379986 
-0.6807531886035645 -0.648662573991093 
-0.879890065120623 -0.6016962122229166 
0.3139662866018385 0.784084662567309 
0.637328721799402 0.39043948705880216 
-0.7752604414423363 -0.3972719290044523 
-0.3557489769381561 -0.47181696275132684 
0.0017617874215734384 0.07309084132594965 
-0.3221550499370906 -0.27758265931029824 
0.6658585042095749 0.6006994439754447 
-0.3828901427788295 0.8408278619797768 
0.8813154986828348 -0.32977247078976896 
-0.3266717639720314 0.01928345794178301 
0.850982072845935 0.7549459654313573 
-0.774207010467272 -0.19849772289679535 
0.07508602832545981 0.026805246993668274 
-0.6264717549778718 0.7228498890228647 
0.3273127873164915 0.6895565828589342 
0.6971189765159821 0.5181328851150021 
-0.15882948936424043 0.23290259055921472 
-0.6794757703371336 0.3553616309004463 
-0.6788697685594549 0.3988927234948262 
-0.5300926814905473 -0.7371306366218644 
-0.694785821717471 -0.9857997502043626 
0.42930967002980647 0.49009933347920004 
0.04289769037806006 -0.6420157115269985 
-0.8360449489198091 -0.93205163732325 
-0.6793587794703447 0.8092976247023684 
-0.5411549630162608 -0.26854492322064155 
-0.8133053643171281 -0.5319802818880567 
0.04450591940593453 0.23359311299008606 
-0.48701704286147685 -0.8499048953877799 
-0.21654717611822605 -0.5066566282880064 
-0.5594337828550436 0.9302310427271995 
0.240959846667999 0.13688345679861624 
-0.17640592742952424 -0.12844114878354607 
0.043370369688136914 0.4105628577069154 
0.39673242054515095 -0.6299397695888115 
0.018332811946798845 -0.13857447287086067 
0.7088701816653246 0.2827147812554351 
0.06756758887382773 -0.7421736129258049 
0.18017640687682618 -0.7455144938963779 
-0.33690848572238774 -0.6860005595154944 
0.3474215786275435 -0.5682744136395268 
-0.22804576020475098 0.80982590897354 
-0.5854346471736707 0.045631983557852376 
-0.18194520026067096 -0.9450440324133577 
0.5897126332088649 -0.840754054976691 
-0.03691650936483782 0.1405853551850088 
0.27303381345042815 0.4143308038707999 
-0.5162995226292145 -0.9738128550618749 
0.4341215494263177 0.0847647506389162 
0.6385531529121519 0.6638202042049653 
0.7123413156376678 -0.010636019583908949 
-0.3102814780385404 0.6003177181558799 
-0.10868799595149789 -0.6041459841907435 
0.7239807629594062 0.7950730584543261 
-0.06961809840380549 -0.8370954117094371 
-0.22019531135154138 0.6219343016390733 
0.7666508314640577 -0.5751054360894832 
-0.8601681663508501 0.7847088384731249 
-0.25551764360303747 0.09830991175757482 
0.951238146534919 -0.8424385643022871 
0.30977155538351464 -0.8312727874697232 
-0.24379919258297128 0.6329688939912462 
-0.1721400879709964 1.0056332054241988 
0.09992511943740479 -0.3488871133473618 
-0.5883833224083407 -0.2751504231987027 
-0.2758845269089786 -0.841109416484674 
-0.2948602931241178 -0.06564297101921802 
0.4685914731583905 0.33129208469764876 
0.4138842839428002 -0.9643351406947005 
-0.5859806439906741 0.3374610896850436 
-0.05207613107096351 -0.9642040590322883 
0.5973001576662359 0.5643561772201557 
0.09660419701605802 -0.8477910746146932 
0.5231868045323032 0.19218402438065263 
0.5830494810776787 0.5349043166604786 
0.5967571723076485 0.05728053545400776 
-0.6994943660557846 0.38095447372148405 
0.2558563747515869 0.5134674479874143 
-0.6910442406638208 -0.5905418603106918 
0.8014607224734831 0.530106328810944 
0.7810388615327954 0.5371417884265451 
0.21137938129101175 0.32394787184818286 
0.7639041505900722 0.17157354068150749 
0.28419921363753436 -0.6661899542923837 
-0.03278107679092393 0.451300668591263 
-0.4449246676763326 -0.5717479635368381 
-0.36585497608569933 -0.483652887793979 
-0.5915851878559003 -0.13639474836167514 
0.7805270490273594 0.023052341169175986 
-0.6358509150563759 -0.835452455513539 
0.3615018850525411 -0.2202409983299386 
0.6448656420805932 0.3497805769105916 
0.5715075069309924 -0.4355172316556717 
0.40822476571976746 -0.44200246105765806 
0.8828339285053801 0.29023755529103584 
-0.3359280844419223 -0.43864453236201684 
-0.6523905544744597 0.404485423491628 
-0.5432893560562227 0.20549970215983263 
-0.4491852062842511 0.34723278104581273 
0.618115892083041 0.5804285991152898 
0.5159441980283157 -0.5950612069204901 
-0.817588622921165 0.42935863090887727 
-0.29561029060619354 -0.11704848915104518 
-0.9506041526207235 -0.4546825905081277 
-0.951848320413172 0.7821005168475347 
-0.5470119105996751 0.13162663242304098 
-0.9434560608427548 0.35705183760431947 
-0.3867305230283303 0.7969987676799491 
0.7363670378209722 -0.3307649520867246 
0.7699153485084488 1.0037638020171817 
0.6742520609013015 0.7183817080017418 
-0.5001641319902879 0.1620549701147005 
-0.8463740708806069 -0.7742868094209747 
0.984439656360771 -0.3271535949975303 
0.48275458071292937 0.6174619243945113 
0.7144396066229585 1.0054459231938662 
-0.5250102307219693 -0.9096250874713938 
-0.21383280184416392 -0.7230990524591272 
-0.9582976521505386 -0.2505088916264214 
0.542355468568117 0.14156301088600118 
-0.36873452593203376 0.31975322388968014 
-0.5328303205310656 -0.9516704512371568 
0.4979980547338719 0.2579849659628949 
0.48627000660620234 -0.9065801571284642 
0.6888267460278217 0.2563886692675252 
0.11212919597833211 0.27412644073846726 
0.6907318835693029 0.18855518340537303 
0.18720303849559478 1.010144316572063 
0.4760323131609265 -0.104951208009336 
0.41752026464381153 -0.193481204934297 
-0.5214303006175579 0.2299283043719038 
0.8324261356004947 0.8693914553187058 
-0.35014373731621146 0.07216381535251018 
-0.6098546394397948 1.0010678644491873 
0.937560358987017 0.32160993278878136 
0.5740553574211127 0.442055183172354 
0.19250713865597566 -0.8723798419186443 
-0.12876728709670957 0.3693408620870816 
0.345902571219211 -0.23133882347644383 
0.9061201663782285 -0.6293960531890547 
0.00898163375491428 0.4161979400203926 
0.40065977795032576 0.30722200739079536 
-0.4732259599518406 -0.6686540300778617 
0.27692641265884943 0.21213565755030725 
-0.6508579576230406 0.4349562722892793 
-0.1000388101390736 0.3481971084370323 
0.644771371810123 -0.6551416428573323 
-0.9425674142306277 0.5811332708431332 
0.20794032026342682 0.41745297914954566 
0.6469878018338019 0.6207045198588395 
0.903393806784604 0.09145120626142224 
-0.030651092660431707 -0.18933338966819563 
-0.6756004296573774 0.16212510812433945 
-0.4332319448516646 0.8553833911310601 
0.17251018412633193 0.21788643704764235 
-0.3292851919878073 -0.8919056230222863 
-0.9444361504873447 -0.14661684805006614 
-0.8447238895896375 0.23908576843393942 
0.7219847648077419 0.7846600837738212 
0.29679476214729067 -0.569401098333363 
0.7378620070402546 0.7935184241457782 
-0.63563534296503 0.47848815484402085 
-0.4373859035713404 0.6326618680209347 
0.9711786429767615 -0.9339275841715521 
0.7541182984564352 0.26161570076161333 
0.9183506725154685 -0.04878874692472642 
0.7163068388193907 -0.8404239592605741 
-0.31401299255585624 -0.849298952425059 
0.9751128461900558 0.6566324062837835 
0.6974918461897581 0.8936162428292389 
-0.8655639145966774 -0.21411857992475383 
-0.857839778682384 -0.5678743461029274 
-0.5540722009145534 -0.04170659506645434 
-0.4450699672928949 -0.7806261420077486 
-0.7010711381474676 -0.6928151918688208 
0.9366056389812797 0.5397622558493808 
0.9037801156509728 -0.10745623982811944 
-0.4658183492011415 0.6164575216495584 
-0.3362953451055034 -0.38434914823802757 
-0.5448732365844868 -0.7228963042956164 
-0.5072271921435997 -0.26711563230944785 
0.3386249519813577 -0.8678039166902268 
-0.5914318525927897 0.6384959563237023 
-0.6939739857575052 -0.2923801311942526 
0.7502165952311408 -0.6733900368540803 
-0.8112346471142569 -0.0075537148202656085 
-0.38828026352475303 0.15949525863617228 
0.593545993989095 -0.7210181736402453 
0.16858509009059316 0.029728630934000043 
-0.7266209420870207 0.2691458574752426 
-0.48110141370657267 -0.0024878209232368277 
-0.8179574367855157 -0.0629960235172532 
-0.42520473598566405 0.6522353007120784 
-0.866489552450935 -0.1382308685429646 
-0.08795733621982266 0.45863939359628664 
0.15421377910393866 0.3486632109932865 
0.5531731151287654 0.7539894351327271 
-0.3549168115135551 0.10593680543423227 
0.6792906153901106 1.0058824401147688 
0.7828902468899906 -0.24233978699043635 
-0.6479207209437735 -0.0011421970130065535 
0.4781773607500902 0.002142119718418568 
-0.062390423271053416 0.6822754253400252 
-0.2647512073365646 0.7340024285066499 
-0.19564508974655578 -0.3212226090564066 
-0.08341523697440595 0.5392840873688737 
-0.7876424173161246 -0.5888286528957104 
0.871066911063109 -0.6464935202409074 
0.1378104219375745 0.18976143620317046 
-0.05810070656921629 0.302771135724589 
-0.5745818265805578 0.1088721493010765 
-0.29645902753041253 0.34057047400841045 
-0.6972054536430118 0.17470481648049468 
-0.618623739326933 -0.42530179468188434 
-0.5781096784695848 -0.6240201518702708 
0.6315535946151097 -0.4173551453253096 
0.8393491022421683 0.950928600891155 
0.15440387496394717 -0.6918447134355927 
-0.2507143647699517 0.6227529761724667 
-0.2964153386869528 -0.8097238660068476 
0.08121193506382401 0.7098584301299444 
0.5617527315159203 -0.6484720593287867 
0.35031308402130973 -0.5398019971145241 
-0.5541627882737296 0.7736885691729852 
-0.525701119456266 -0.45852595188878015 
-1.0344921688233741 0.7404641091198646 
0.5479700281099212 0.2731143693124093 
0.5248280402042151 -0.6714913198660941 
-0.10552236636401341 -0.28306827079630476 
-0.8006256521207569 -0.007246808524371918 
0.835834190432748 -0.888322620312488 
-0.42815948460016034 -0.5775181291232921 
-0.5461491999942334 0.8197085712789944 
-0.09705919170526599 -0.05730396701428828 
0.5242893538712088 -0.6752757361574232 
-0.010731386838866461 -0.12578216122799676 
0.19916970237087303 1.0153171401290668 
0.5287240204366455 -0.17729487874415334 
0.6171512668084161 -0.6500913830619027 
-0.9152332680438776 -0.5671859038754667 
-0.307094622843487 0.04665513545611685 
0.21148324130146856 0.830207849649769 
0.04451170724944836 0.02047985085289688 
-0.8954639204478161 -0.9195392896838307 
0.0998328723643278 -0.10262761037387938 
0.682947300020073 -0.6466584877007188 
-0.9334260409631978 -0.08803347914398166 
-0.5182575147302736 -0.8873515459475831 
0.4140479206641165 -0.7570984158345926 
0.20368834451487108 -0.43235272661969654 
-0.6307015999135338 -0.2224958138720828 
0.5764533572815281 -0.2028422418807219 
0.4861827493000321 -0.7352735498590737 
0.5318573965768404 -0.5066343952844962 
0.33726819375281 0.15871091090490383 
0.8568100871449681 -0.20098874825929655 
-0.8448322431700342 -0.9422760252387753 
0.6242479374282686 0.07345933249839007 
0.5158152909817095 -0.5156790012681186 
-0.3398986737073543 -0.9245385355100543 
0.9426142359284579 0.36006091891158687 
0.8740554020697109 -0.4572350229349845 
0.19861619051824925 0.37515677429843763 
-0.35246571745439687 0.7239737503715802 
0.9135648499744764 0.7892122242125852 
0.4941015802363589 -0.41948039280456495 
-0.41875598980223283 0.9592553789373345 
-1.0055230354211986 0.4471645597045614 
0.41804163600778066 0.2769558339117858 
0.9658364220132475 -0.3511266513328022 
-0.30445586811118375 -0.8177842759314504 
-0.10721707979732124 -0.45355147813816554 
-0.29838618100393943 0.6836112880761743 
0.8728852875268129 -0.6040849824018081 
-0.28421821242698997 0.8680171039591891 
-0.879790422623415 -0.7994061377469106 
-0.6552153051254216 0.22908036843118953 
-0.6764203093620881 0.9584622795216489 
-0.1459623672853643 0.02029525584794742 
-0.5317522589857447 -0.05674511623583958 
0.2891012819140367 0.5218025495885731 
0.5152107514249789 0.1802811743094924 
0.8182258204546358 0.6688760291515896 
0.49366317904811213 -0.8873330264384217 
-0.9942732505292472 -0.5568005595519756 
0.3438395553744021 -0.15547672759187478 
-0.19272992585149284 0.8020006347824316 
0.79046947176998 0.8317038036051412 
-0.3778504408998696 0.40900569207918375 
-0.4587872748647485 -0.6094304797334761 
-0.6562064102674223 -0.29446118548969946 
-0.1475411036147865 0.6887764722419145 
-0.7618066416698863 0.5023971591505272 
0.08059333543543672 -0.398559773426634 
-0.011649838747285535 -0.38091276671766877 
0.1966891071023902 -0.09898724541955131 
-0.6997575947892423 -0.7613381909990317 
0.08252100530456345 0.8236961973826972 
-0.35263994238104795 0.4753271590322221 
0.29155708652123824 0.8784397064114672 
0.6493713276074896 0.15805667288046837 
0.3398139355855175 0.822307621574746 
-0.2376718762039127 -0.32777385163691747 
-0.9974930558612635 0.6769693591952279 
0.6179259605208914 -0.7752874818171598 
0.13166113102964125 -0.06960734007927574 
-0.7684569683605044 0.9836209940321113 
-0.5655275251888181 -0.837556386159206 
0.19230523245300196 0.49480819023728617 
-0.9657676739495523 0.3323894476911454 
0.04128438280437409 -0.7676089855870867 
-0.6478382246931476 0.16766053025445934 
-0.4082754409735441 0.8909338648336221 
0.5981318367785686 0.9731769276074429 
-0.4770164383728461 0.9736822261609135 
-0.17738698430708025 -0.28868841894244834 
-0.8941323524847546 -0.8653309460620854 
0.3578330746334603 -0.07528387676377146 
-0.5294603579106212 0.2659771283283679 
-0.5161753714920092 0.1799980534946303 
-0.29733052005625954 0.6552058450299388 
0.6076978580236577 -0.026122847698666154 
-0.31801169624294684 -0.26377764990674507 
0.6270872098202122 -0.31227310863460306 
-0.5606165106665998 -0.7939238738994961 
-0.08685885179011177 -0.01382579579953156 
0.6739314317999068 -0.54545460761006 
-0.22663134729268464 0.6313226170528332 
0.6678217579401527 -0.2127469788454313 
-0.08441685234577799 -0.3709588511460065 
0.8524689895361879 -0.7504460146819603 
0.850350276441879 0.391387420584235 
0.06628347189705651 -0.9079098251813039 
-0.08617964085444053 -0.18453726124829561 
-0.6842978402159491 0.3444152950838562 
0.9201512616040938 0.14929451890739842 
0.4386826206526535 -0.8324976182938204 
-0.2017399075682365 -0.7466364182940521 
0.21990426276204955 0.9045290211722318 
0.31569658703655307 -0.8304852969602856 
-0.289517032371047 0.12414769818936724 
-0.22658805770287627 0.6684779629863361 
0.6318177118812469 0.23620956202610477 
-0.2589241875652063 -0.4661222301085599 
-0.7956395999329058 -0.265084402254032 
-0.1757294557262468 0.37480752684885793 
0.32220886417378514 -0.8404995592106741 
-0.19903651600575634 -0.6070909265962755 
-0.7090038399362273 0.6658622950373532 
-0.9028515407895291 -0.135366044126948 
-0.6709699135434245 0.7757821678890902 
0.07713178430617752 -0.5248383653521048 
-0.03355215490268696 0.47826824592070794 
0.903865635113829 -0.5541952498873712 
0.7873186654487139 0.8862044008719455 
0.8352711967178733 0.3015506182307246 
0.27498249285910376 -0.1780829284192848 
0.4984856814632894 0.08157118867864545 
0.3487513909498356 -0.1349316980991282 
0.43490066532734906 0.6538109495939638 
-0.7282060168957654 0.6829498104437958 
0.062346358916420985 0.716995233031233 
-0.17441040908199365 -0.22564886368559173 
0.8037535531277438 -0.4853378220114896 
0.6898828515472979 -0.015002160383042418 
0.03376300391724085 -0.3546641582609623 
0.1686023356299412 -0.31375846713517663 
-0.8990366202686328 -0.43732037786952965 
-0.9797675702957878 0.9672819932020894 
0.919104450992393 -0.19338888841473245 
0.4541933499523079 -0.27980695060371014 
0.35193143638015595 0.6399204961880672 
0.857980943215056 -0.1782150076963379 
0.5587417914117552 -0.46102313737089684 
0.9920656813009501 -0.9149072009013429 
0.19235265851999092 0.3334459055846428 
0.37036308470164414 -0.7342443930384744 
0.8767572174233329 -0.6190515866592222 
0.21761737727491617 -0.5456531506422829 
-0.3985262601850111 0.10094308324919236 
-0.18860646618250626 -0.6575657581966373 
-0.6980614581965413 -0.1440681822512881 
0.47461827195967504 0.8136813862618976 
-0.8143393428571023 -0.19811020955774647 
-0.818636787397581 -0.961599477383923 
0.3186328495440662 0.22125743526721095 
-0.6951075560866723 -0.5201632229382646 
-0.9299051863398925 0.6921910206182056 
0.9220025761892329 -0.7078374948755223 
-0.5439617104782549 0.7443988120328713 
0.8705594333730086 -0.13386261386875403 
-0.8847272537530531 -0.8941001276621365 
0.11860992630724235 -0.2019143131836458 
-0.9362131240659818 0.2010250602122692 
-0.9929938396447736 0.6000303384716893 
-0.3931439668655941 -0.9072107561307087 
0.14176275653242978 -0.18406061897553913 
0.9126693791755632 0.09693486817629672 
-0.44483938905348314 0.4475120582425533 
-0.46665904351721255 0.8295094914840323 
-0.2657309562913637 0.12193106960589543 
-0.8928786907414791 -0.12182884824471328 
0.6781156455368826 0.6294484447249793 
-0.5845174431753817 -0.5309872712471384 
0.6361938802181052 0.8796519619659577 
-0.8427385968426433 -0.0874352881725881 
-0.31351994694024 0.7604617658564895 
-0.8252871770223742 -0.5661726626838717 
0.5288738137370073 -0.8763265797948002 
-0.05301535624215827 -0.09877365054015928 
-0.3698278181401474 -0.19092267901039545 
0.034224698944082796 -0.6574298235541061 
0.12092938261763368 0.6227050244593182 
0.49124699488388807 -0.6689270685152826 
-0.6819087786713292 -0.4381674280244308 
-0.3021621648753826 -0.17160341647342928 
0.3338783457868161 -0.8685833850765633 
-0.9181517390795194 -0.1993851987280285 
0.37795857143476114 -0.5868426038313271 
0.28879816571684747 -0.4469614371085419 
0.7375972588029103 0.796638904889816 
-0.41446259653664574 -0.5218562127947198 
-0.2153250184364751 -0.513358669046612 
0.30726695212933086 0.6644497240508729 
0.36404304635943535 0.6804732752653836 
-0.23511323947381926 -0.6832664062221669 
0.47479649253733985 -0.26709599808174933 
0.3314005084285082 -0.4466983585347494 
-0.8590597054851166 1.006121941209266 
-0.6674820639922558 1.0001661563725353 
0.9146702846014071 0.6009631267941877 
0.31700928415482954 0.1865261097889108 
0.7564384091788534 -0.4032106470061318 
-0.07325427327200683 0.26669000409544524 
-0.1548158808430189 -0.1281572611394222 
-0.37788513539732455 0.14028199548075534 
0.6838736543843834 -0.5728544417380289 
0.8454229474852641 0.39127700942162874 
0.6588543985858316 0.1267360250540422 
0.5842402267386223 -0.946093154745856 
0.6163606129368262 -0.9132221967436974 
0.7856437655784636 1.0014321519894662 
-0.4386939395164202 -0.5711528212214322 
0.5324103560314967 -0.4824182165151176 
0.7177089249045484 -0.7707909957305438 
-0.7242321637916895 0.985155522308352 
0.34406015362949494 0.7208157916493939 
-0.3626282869625805 0.3574259907970052 
0.15999873796291794 0.20712383484294733 
0.3310507593196919 0.17237801140080708 
-0.16640882453469888 -0.43977267967763756 
0.5182792484146872 -0.5437045375107921 
0.3975364405475144 -0.501044135213274 
0.24851123415835102 0.5120352396935455 
-0.5635173242206833 -0.8708396784676941 
-0.774126858176971 0.2329771260321843 
0.7175074576376886 -0.8898526152179932 
0.4738369179922571 -0.29012319400766157 
-0.07511237854294053 0.8582292477235064 
-0.324842671853847 -0.05724736625780845 
