[-0.25091976  0.90142864] [0.4639879  0.19731697] [-0.6879627  -0.68801093] [-0.88383275  0.7323523 ] [0.20223002 0.41614515] [-0.958831   0.9398197] [ 0.6648853 -0.5753218] [-0.6363501 -0.633191 ] [-0.39151552  0.04951286] [-0.13610996 -0.4175417 ] [ 0.22370578 -0.7210123 ] [-0.41571072 -0.26727632] [-0.08786003  0.5703519 ] [-0.60065246  0.02846888] [ 0.18482913 -0.9070992 ] [ 0.21508971 -0.65895176] [-0.8698968   0.89777106] [0.93126404 0.6167947 ] [-0.39077246 -0.8046558 ] [ 0.36846605 -0.11969502] [-0.7559235  -0.00964618] [-0.931223   0.8186408] [-0.48244002  0.32504457] [-0.37657785  0.04013604] [ 0.09342056 -0.6302911 ] [0.9391692  0.55026567] [0.87899786 0.7896547 ] [0.19579996 0.84374845] [-0.823015   -0.60803425] [-0.9095454  -0.34933934] [-0.22264542 -0.45730194] [ 0.657475   -0.28649336] [-0.43813097  0.08539217] [-0.71815157  0.60439396] [-0.8508987  0.9737739] [ 0.54448956 -0.6025686 ] [-0.98895574  0.63092285] [0.41371468 0.45801434] [ 0.54254067 -0.8519107 ] [-0.28306854 -0.7682619 ] [0.72620684 0.24659625] [-0.33820394 -0.8728833 ] [-0.37803537 -0.34963337] [0.45921236 0.27511495] [ 0.7744255  -0.05557015] [-0.7608115   0.42648956] [0.5215701  0.12255439] [ 0.5419344  -0.01240881] [ 0.04546566 -0.14491796] [-0.94916177 -0.7842171 ] 
[-0.93714166  0.27282083] [-0.37128803  0.01714138] [ 0.815133   -0.50141555] [-0.17923415  0.51110226] [-0.5424037 -0.8460402] [-0.4204971 -0.6775574] [0.8593953  0.61624074] [0.26680753 0.7429212 ] [ 0.60734415 -0.6268599 ] [0.785118   0.07868449] [0.6148803 0.7921826] [-0.36399305 -0.77989614] [-0.54412967 -0.14578442] [0.63602954 0.7214612 ] [-0.9860957  0.0214946] [-0.165178  -0.5557844] [-0.7602693  -0.32476965] [ 0.88581944 -0.35359412] [0.03758124 0.40603793] [-0.27274078  0.9435642 ] [ 0.9248946 -0.4964354] [-0.00550299 -0.39824337] [-0.430319  -0.9262261] [0.21912867 0.00535805] [-0.8970425  -0.44270706] [ 0.8165318 -0.5208762] [-0.71021026 -0.02109448] [ 0.9713009  -0.51588947] [0.3442711  0.52323925] [-0.5247249  0.4564327] [-0.26443374  0.26461166] [0.26705942 0.07154937] [-0.81942046  0.670605  ] [-0.35843986 -0.62696296] [-0.9184497   0.18178588] [ 0.35512874 -0.96682435] [ 0.02418612 -0.54700845] [ 0.29034558 -0.6512672 ] [ 0.3818755 -0.2265293] [ 0.87346   -0.7249581] [-0.3178673  -0.77305293] [0.8493872 0.7546787] [-0.48411673  0.3199681 ] [0.6344444  0.11040162] [ 0.05930116 -0.51629543] [-0.8137945  0.7944315] [0.8008361  0.26620293] [-0.32194042 -0.30158085] [0.45191136 0.7942205 ] [0.77417284 0.5597511 ] 
[ 0.28406328 -0.83172005] [-0.67674255  0.79710835] [ 0.21285813 -0.9816059 ] [-0.7970569   0.32700354] [-0.9898768 -0.6783839] [0.09746758 0.3837904 ] [ 0.3039225 -0.5514614] [ 0.42435846 -0.52550185] [-0.3492006  0.4929828] [0.2992658 0.6984468] [0.31522578 0.13661721] [-0.81265044 -0.2645684 ] [-0.46959525 -0.5120207 ] [ 0.9460211  -0.21380456] [0.7840931  0.26227725] [0.5896226  0.00527419] [ 0.15380777 -0.01496461] [-0.609514    0.44490424] [-0.43845528 -0.9513681 ] [ 0.2909446  -0.64577866] [0.8809172 0.9078572] [ 0.8297288 -0.2596826] [-0.96908677  0.8566371 ] [-0.1436317  0.9333096] [0.92723995 0.7060189 ] [-0.4111022  -0.22980455] [ 0.70227337 -0.36615598] [-0.6610145   0.11360253] [0.87230957 0.3920596 ] [ 0.14012234 -0.805647  ] [0.23001446 0.9801077 ] [-0.71983194  0.0366593 ] [0.75474614 0.48153722] [0.3940315  0.40496817] [-0.2810177  -0.41281632] [0.6187223 0.6202268] [0.7341446 0.8264811] [0.0226848  0.00303259] [0.59659034 0.29992786] [0.40393376 0.59158534] [ 0.7800107 -0.3240097] [-0.24883409 -0.8120361 ] [ 0.15656029 -0.9281154 ] [-0.06880397  0.08528927] [-0.4269175   0.18166652] [-0.9389995  -0.92530364] [ 0.64520115 -0.2796187 ] [-0.745879    0.04448652] [ 0.5399871  -0.56835794] [ 0.24578094 -0.82930505] 
[-0.89663655  0.06270926] [0.08127024 0.27485982] [0.45218268 0.95170414] [ 0.0326007  -0.35408705] [ 0.5903724 -0.4583355] [-0.12205716 -0.84308726] [-0.9492985   0.92529684] [0.67196023 0.3919484 ] [-0.18209411 -0.6534114 ] [-0.6871259 -0.4995142] [0.09845333 0.42919186] [ 0.32039475 -0.4401322 ] [0.90973055 0.47579384] [0.10870811 0.2234415 ] [-0.16079988 -0.504538  ] [-0.28805465  0.51569223] [-0.97121304 -0.7678547 ] [-0.9079947 -0.9185424] [0.71092117 0.40731573] [-0.05165234 -0.80433166] [-0.01676825 -0.05305646] [-0.6535963 -0.1322967] [-0.20299053  0.2317002 ] [ 0.2701873 -0.909392 ] [-0.25077477  0.25171983] [0.00627252 0.7129797 ] [ 0.31738725 -0.67413116] [-0.8588625   0.28483856] [-0.9469774   0.17155117] [0.63797516 0.19500649] [-0.46614525  0.33063444] [-0.32597956  0.13529173] [ 0.6404443  -0.18373659] [0.9223811 0.8107013] [-0.60841775 -0.8612774 ] [-0.20751742 -0.9286815 ] [-0.5817084   0.46581244] [-0.62821704 -0.26224986] [ 0.91915625 -0.85365725] [ 0.26741624 -0.37136632] [-0.7636703   0.39347434] [0.2578857 0.754944 ] [0.4701421  0.60696185] [-0.43593085 -0.6451209 ] [0.5012295  0.61366946] [ 0.98101026 -0.17476465] [-0.25596383  0.5528259 ] [-0.31839293  0.8615146 ] [ 0.7168255  -0.14201194] [0.5017421 0.5090858] 
[-0.79375225  0.8051058 ] [0.01050474 0.65291494] [-0.3599008   0.79104644] [-0.22159664 -0.9783247 ] [ 0.81076396 -0.8174266 ] [-0.36137274  0.90012395] [0.9012143  0.14687577] [ 0.26367444 -0.10310896] [-0.41357845 -0.34267092] [0.34503692 0.50474906] [0.5831581  0.57923627] [-0.39972576  0.05445342] [-0.46702084  0.16467053] [0.3009231  0.84102136] [ 0.11969209 -0.700253  ] [-0.7140166  0.5230213] [ 0.23643613 -0.79775465] [-0.8317864   0.40193826] [-0.75087315  0.8646645 ] [ 0.5160853  -0.61635804] [-0.72672373  1.1942238 ] [-0.14785737 -0.03777129] [0.62559915 0.89449716] [0.97200215 0.50675637] [-0.24748082 -0.8329986 ] [0.5542938 0.1168085] [-0.15155599  0.8127088 ] [-0.77760506 -0.01474979] [-0.7059657   0.01357182] [-0.8585518 -0.6420555] [-0.73610586  0.41872913] [0.57802576 0.3011155 ] [ 0.738954   -0.19213142] [-0.07274567  0.6489749 ] [-0.50849366  0.70293164] [-0.10446138  0.4524079 ] [-0.403971    0.35986063] [0.26637545 0.6657965 ] [-0.55890065 -0.25336584] [ 0.34810263 -0.06511181] [0.02981561 0.21526605] [-0.31989938  0.07888447] [0.16862862 0.802316  ] [-0.90910727 -0.43807364] [0.900823  0.7805276] [-0.0886865   0.24026519] [-0.44523764 -0.62375766] [-0.07260319 -0.29329553] [ 0.16731222 -0.8445307 ] [0.9487896  0.97242147] 
[0.39632344 0.07219274] [-0.38094476  0.62759006] [ 0.36946234 -0.6747661 ] [0.82185435 0.6450745 ] [0.89959985 0.45143902] [ 0.2268304  -0.16351393] [0.86545694 0.7321278 ] [-0.90956265 -0.94726604] [-0.24707326  0.6211067 ] [ 0.9745523  -0.69916624] [ 0.18826143 -0.2382183 ] [1.1994805 0.5855996] [ 0.9363082  -0.16125223] [ 0.08929072 -0.55182403] [-0.6275982  0.6308065] [0.62580204 0.99943537] [0.9932737  0.11086341] [0.53797483 0.88953143] [ 0.80289567 -0.28435934] [ 0.00468923 -0.52073675] [1.0117034 0.4332937] [-0.43911377  0.56434566] [ 0.23625648 -0.28367457] [-0.7728848   0.34314638] [0.22948216 0.42726088] [0.22919376 0.5869873 ] [0.2926806  0.00450014] [ 0.94217384 -0.3104101 ] [-0.4606426  -0.86618435] [0.5391162  0.36092764] [ 0.644535 -0.2919  ] [-0.43378764 -0.6746693 ] [-0.27668276  0.399826  ] [ 0.34785146 -0.05141082] [ 0.8526318 -0.5270026] [0.8992082  0.07995633] [ 0.30279443 -0.17825231] [0.93569994 0.57890815] [-0.05382484  0.6321418 ] [-0.2477486 -0.4547785] [0.04781096 0.92387474] [ 0.11477575 -0.37868798] [ 0.2668017  -0.51970875] [-0.84827334 -0.74224055] [-0.74390835 -0.6961946 ] [-0.72234565  0.2817495 ] [-0.6362398  -0.30866542] [ 0.79357684 -0.05207672] [ 0.33511546 -0.6553603 ] [-0.61542195 -0.9182628 ] 
[-0.6621299  -0.44281933] [-0.64597905 -0.82259494] [-0.75872827 -0.07844246] [-0.58733255 -0.27146026] [0.00683454 0.38078967] [-0.9213757  0.5988208] [ 0.25580078 -0.8364819 ] [0.6906842 0.8163939] [-0.9343172  -0.47159526] [0.5559295 0.4711688] [-0.68743104 -0.6066522 ] [ 0.0005959  -0.12959261] [ 0.49616134 -0.3608117 ] [0.18472096 0.3963029 ] [-0.6669828 -0.5937643] [0.42669916 0.7904137 ] [0.02335488 0.06422697] [-0.785656   -0.10517526] [ 0.16883558 -0.2941145 ] [-0.35791287 -0.02448728] [-0.8562567 -0.1348973] [-0.4735033  -0.12406094] [-0.76047575  0.78105456] [0.1871849  0.35820463] [ 0.7672091  -0.12049137] [-0.6372928  -0.04316274] [0.3625491  0.37350312] [ 0.05218588 -0.86221504] [-0.19786137 -0.22677976] [0.28393617 0.23267049] [-0.08817127  1.2260084 ] [ 0.4682784  -0.25849965] [-0.77429223 -0.4742909 ] [ 0.05527923 -0.6049974 ] [-0.5825515 -0.6533232] [0.21797678 0.3061812 ] [-0.3298233  -0.37340286] [0.03176603 0.6446241 ] [-0.12389369 -0.42532232] [0.7069594 0.7597477] [ 0.7636838  -0.52038485] [-0.5286851   0.30109525] [0.85875195 0.11352579] [ 0.14322537 -0.4400418 ] [ 0.53898585 -0.6259125 ] [-0.35264152 -0.14912713] [ 0.01522076 -0.5151805 ] [-0.7703264   0.22124009] [-0.42273888  0.16247645] [-0.6912746 -0.0377198] 
[ 0.06517886 -0.89635295] [-0.32679144 -0.73117065] [-0.87325007  0.97992045] [-0.35529232  0.6197489 ] [-0.4907187   0.36300546] [0.5204557  0.19127747] [-0.05684762 -0.17631817] [-0.35873646  0.8337074 ] [0.6047657  0.90470296] [-0.8078786  0.4363844] [ 0.82020783 -0.6628847 ] [-0.6073567   0.38360232] [0.40859827 0.5850193 ] [-0.46080336  0.49189556] [-0.33709332 -0.77132636] [-0.6714684   0.62914944] [0.51147664 0.18602903] [-0.10125679  0.8942988 ] [0.25154176 0.6717606 ] [ 0.34492102 -0.207549  ] [ 0.21092881 -0.49857983] [ 0.78078806 -0.09589514] [-0.30285424  0.7644285 ] [0.00050296 0.05238496] [0.774783   0.03232904] [-0.5012323  0.6895227] [ 0.2876674 -0.4856092] [-0.6892048   0.43262982] [0.77786595 0.1399832 ] [1.0223716  0.62425053] [-0.2545296  -0.16763687] [-0.00380699  0.71088135] [-0.66830695  0.31571206] [1.0882818 0.8271712] [-0.2715225  0.4190011] [-0.49843326  0.17067997] [-0.46471938 -0.72765017] [ 0.57615715 -1.1200964 ] [-0.11887451  0.12367261] [0.5696126  0.24610437] [0.5174364  0.04925808] [-0.36686236 -0.34479922] [-0.6368046   0.81690115] [ 0.16678359 -0.19829717] [-0.07598839  0.89456666] [-0.6932972   0.17245966] [0.01177736 0.22290847] [-0.9637796  0.7442478] [0.8642366  0.13026637] [0.39330164 0.8449988 ] 
[ 0.41447726 -0.6949219 ] [0.15257671 0.21343009] [-0.15173866  0.47288847] [0.868734   0.85113704] [-0.09832126 -0.7735239 ] [0.9696824 0.6777962] [-0.75067466  0.84168375] [0.6833196  0.01232554] [ 0.12607764 -0.22734512] [-1.1458491 -0.0237847] [ 0.35033616 -0.6849158 ] [-0.69011015 -0.03674271] [0.01091062 1.096336  ] [-0.17229065 -0.38064113] [ 0.6100202  -0.17011115] [-0.25756234 -0.0054167 ] [-0.53720367 -0.5073283 ] [ 0.1778178  -0.02225104] [ 1.1927431  -0.45759413] [0.5242274  0.08214631] [-0.79184264  0.00479443] [-0.46195996  0.5998603 ] [-0.46995416 -0.20547245] [-0.5965801  0.9590278] [-0.03377096 -0.02537689] [-0.60087544  0.30977964] [-0.54793775  0.6406877 ] [-0.5574697  -0.77404547] [-0.6605073  -0.05905544] [ 0.09294239 -0.8977769 ] [0.72184974 0.03924606] [0.21957406 0.01419389] [0.00905959 0.28114387] [-0.4819859  -0.47428054] [0.72357124 0.8922309 ] [-0.25338137 -0.45851067] [ 0.2879991  -0.18253165] [-0.9492273 -0.6876948] [0.7904659 0.4578881] [-0.5872865  -0.41601533] [-0.1793292  0.4838257] [-0.6020574  -0.65174186] [ 0.5998322  -0.64291066] [ 0.30549222 -0.52363443] [-0.80111724 -0.5136556 ] [0.44453385 0.71139294] [ 0.6604397  -0.20563294] [ 0.3361703 -0.5900314] [-0.41370454  0.7926716 ] [-0.97399616 -0.82898295] 
[-0.5842275 -0.9469356] [-0.6371291   0.16608313] [-0.1571509  0.7853434] [ 0.6348871 -0.3163653] [-0.48115313 -0.24061519] [ 0.28967273 -0.5251933 ] [ 0.35738072 -0.24249783] [ 0.1567041 -0.2144186] [-0.3584585   0.81023514] [ 0.2718408  -0.41395295] [ 0.15766974 -0.05990753] [0.2663117 0.5902906] [-0.37913802 -0.8747766 ] [-0.49331206 -0.16761789] [ 0.5601845  -0.39452037] [-0.42805958  0.7595652 ] [1.1498867  0.19127856] [-0.47555912 -0.31548724] [-0.6001679  0.6462151] [-0.40144753 -0.02934919] [-0.26992133 -0.21392421] [0.48480898 0.3372036 ] [-0.3544371 -1.0127285] [-0.4935082  0.7653166] [0.5207523  0.09605522] [0.27713856 0.25730762] [-0.805873    0.79077864] [-0.3190745 -0.2717676] [ 0.30422834 -0.9092566 ] [-0.70417273  0.44687256] [-0.87114215  0.17710933] [-0.5460418  -0.25060368] [-0.42261252 -0.28865457] [ 0.4380918  -0.40575656] [ 0.13280928 -0.04789919] [0.32734233 0.8736595 ] [ 0.4651442  -0.57011926] [-0.93763375 -0.4754719 ] [ 0.19015586 -0.8971484 ] [-0.00726751  0.1936857 ] [-0.3315122  0.5418244] [-0.7868035 -0.8497244] [ 0.4563775  -0.00901737] [ 0.3768048  -0.13034533] [-0.50719595  0.63820463] [0.5988318  0.38939294] [-0.45570973  0.18046133] [-0.2780522 -0.8168359] [ 0.83462715 -0.72636276] [ 0.9004747  -0.10798845] 
[-0.62973416  0.0838019 ] [0.7458917  0.46444976] [0.6131223  0.31756672] [0.38455313 0.6983913 ] [-0.500664   -0.02115007] [-0.44849816  0.9140154 ] [ 0.9972011 -0.982467 ] [0.5202328  0.78917605] [-0.5297669   0.07456946] [ 0.6320785 -0.600937 ] [-0.12795228 -0.4147214 ] [0.32599962 0.9326966 ] [0.65896887 0.02871335] [0.6934193 0.4382122] [-0.06857134  0.74753565] [-0.63275623  0.28224397] [-0.35890016 -0.6189685 ] [-0.6650113  0.5324754] [-0.10604216  0.29899898] [-0.65507835 -0.51995474] [0.11210828 0.2910137 ] [-0.3293693  -0.03865039] [1.004676   0.19700567] [-0.30136067 -0.9859191 ] [ 0.5131699 -1.0562305] [ 0.82550836 -0.01489143] [0.7215199  0.55952126] [ 0.83925277 -0.33662096] [ 0.83750945 -0.17013285] [-0.04024876  0.25501093] [0.7473542  0.96816695] [ 0.5365468  -0.16446644] [-0.15728599  0.4751646 ] [-0.5224457 -0.7790518] [-0.2907557  -0.42552203] [-0.40738377 -0.5327845 ] [-0.9158136 -0.9642521] [ 0.9754448  -0.14445373] [-0.23134671  0.35929456] [-0.56349224  0.8999224 ] [ 0.57269  -0.821178] [-0.16483845  0.7582366 ] [ 0.889464   -0.06519698] [ 0.22682278 -0.6659321 ] [ 0.98233724 -0.5366566 ] [0.88546354 0.2992933 ] [0.21547359 0.02537702] [-0.53866035 -0.6469439 ] [-0.55902755 -0.6271235 ] [ 0.55916893 -0.2997495 ] 
[-0.88431466  0.93820524] [0.76757175 0.8555046 ] [ 0.98981565 -0.6522095 ] [-0.20751595  0.5164769 ] [ 0.39204124 -0.6922082 ] [ 0.74074864 -0.61243945] [-0.44328177  0.0126278 ] [0.29496273 0.09885141] [-0.7079439   0.69360113] [-0.667698   -0.40979883] [0.2547034  0.90188307] [0.2014623 0.6096122] [0.08091891 0.1819998 ] [-0.8566926  -0.43398008] [ 0.03860476 -0.3907882 ] [0.74006855 0.08145577] [-0.83790755 -0.5596336 ] [ 0.3665175  -0.84773827] [0.553572   0.02214017] [-0.18766946  0.21666272] [ 0.50052005 -0.27253422] [0.20718963 0.16331106] [-0.46594346  0.75725996] [0.59485203 0.31690368] [0.34535843 0.46609688] [0.06092112 0.40553585] [0.03913808 0.09179045] [-0.11858218  0.23694238] [-0.6827898  0.7617415] [ 0.74368703 -0.94150543] [ 0.6516335 -0.7422603] [-0.32976228  0.4870165 ] [-0.6784802   0.63593405] [0.6642684  0.01493547] [-0.9872283  -0.42592373] [0.23385383 0.96237236] [ 0.26362705 -0.48039284] [0.26801142 0.07997076] [ 0.5596908 -0.7860387] [0.5220558  0.08253316] [ 0.925984   -0.31625566] [0.2652438 0.8640562] [-0.7949805  0.874457 ] [ 0.37577143 -0.8643259 ] [-0.39807287  0.41634417] [-0.8652988   0.16434091] [-0.3082339   0.24183103] [-0.90851593  0.7430736 ] [0.9469779 0.9377557] [ 0.49930367 -0.7398275 ] 
[ 0.5165264  -0.95082617] [-0.9557529  -0.35277957] [-0.02271362  0.5408148 ] [ 0.36659077 -0.10819459] [-0.45274666  0.994249  ] [-0.0385546  -0.15854709] [-0.5636699  0.5282985] [ 0.49644735 -0.6197814 ] [-0.7261555   0.29967776] [ 0.41310173 -0.27591908] [ 0.6819119  -0.86091346] [-0.35514626  0.7242026 ] [-0.38036123  0.11402289] [-0.5287061 -0.7921606] [ 0.9679553  -0.18133199] [ 0.7881984 -0.5400908] [-0.5737906  -0.93773186] [ 0.30333364 -0.26294732] [ 0.5798747  -0.02173307] [ 0.787545 -0.597102] [0.5884045  0.58504075] [0.39300108 0.72141343] [0.522048   0.25244063] [-0.73751026 -0.93494767] [0.58490276 0.09379853] [ 0.3362813  -0.17645729] [-1.0221761 -0.8891315] [ 0.11433761 -0.2788901 ] [-0.59895056 -0.01681091] [-0.87158215  0.1639428 ] [-0.46201319  0.5951182 ] [-0.3792761 -0.0895597] [-0.9767589  -0.85510623] [-0.2150129  -0.04012233] [ 0.2000411  -0.41667485] [0.38996378 0.72024477] [ 0.559702   -0.92076236] [-0.03898611 -0.7901396 ] [-0.51590997  0.9733252 ] [-0.7150089  -0.00222369] [0.23631147 0.40492994] [ 0.11929737 -0.9804583 ] [-0.34707737  0.03542329] [-0.824267   -0.29874614] [-0.9335938 -0.842843 ] [-0.20615345 -0.7345685 ] [0.1350817  0.37892994] [ 0.6011734 -0.5996995] [-0.66503483 -0.79086435] [0.2728605  0.41295144] 
[-0.9368277  0.8724245] [-0.8960574   0.08259267] [0.41812104 0.74193823] [0.42817387 0.60345614] [-0.3210996   0.62965024] [-0.8397703   0.78963333] [0.09518475 0.6345955 ] [-0.09536343  0.2871554 ] [0.05280532 0.46317905] [-0.73266065 -0.7017341 ] [-0.40171427 -0.50334895] [ 0.8476465  -0.38401014] [ 1.0558102  -0.14864694] [-0.6357642  0.579397 ] [0.2138751  0.09735104] [0.0071866 0.5393631] [-0.6466307  1.0936271] [0.84604615 0.40161118] [-0.7497569   0.39230385] [-1.0759491 -0.8910584] [-0.70497876 -0.02711699] [0.5162005 0.5019749] [ 0.4139103  -0.13322318] [-0.30813003 -0.25792247] [ 0.7185062 -1.0592846] [0.47726965 0.01784867] [-0.37956244  0.31101337] [-0.28345543  0.60734344] [ 0.8014037  -0.15655814] [-0.4463444   0.18470065] [ 0.8247267 -0.5786756] [0.09030054 0.37953648] [ 0.31059346 -0.6204487 ] [0.11693852 0.774594  ] [-0.9553454 -0.5683844] [ 0.78371143 -0.79793304] [ 0.54969144 -0.17533128] [-0.50553787  0.7414998 ] [-0.10938949  0.02963471] [-0.28153327  0.1859017 ] [-0.67295223 -0.21783693] [ 0.93882465 -0.48373315] [ 0.31347334 -0.34961987] [ 0.5469462 -0.7382527] [ 0.9396421  -0.09242092] [-0.5278991 -0.8530065] [-0.6604842  0.0395479] [-0.32599366  0.65776676] [-0.13822496 -0.50257146] [0.23428997 0.41355443] 
[-0.6659162  -0.66476154] [-0.92665714  0.47280404] [ 0.32760906 -0.05073825] [0.6883409 0.6113403] [0.17070873 0.7365426 ] [-0.5883176 -0.7761608] [-0.46050078 -0.8858263 ] [0.06233906 0.8732114 ] [-0.9213129  -0.75578016] [0.00847737 1.0453115 ] [-0.26360852  0.1920311 ] [-0.8127749 -0.5257519] [1.1800785 0.8923669] [-0.8873801   0.68819135] [0.27743903 0.62136406] [-0.09132121 -0.0832811 ] [-0.12584732  0.4346883 ] [-0.82423764 -0.8390931 ] [-0.37719414  0.49904734] [-0.66084945  0.45234078] [ 0.87526774 -0.7067233 ] [ 0.28064746 -0.00702368] [ 0.66478175 -0.62991077] [0.3852519  0.67623055] [0.63243556 0.22699407] [-0.26244372  0.09619239] [0.48101664 0.00171735] [-1.1960187   0.72239435] [0.3790535  0.35302678] [-0.5686497   0.31777093] [-0.21227118  0.30246595] [-0.94244677  0.43210664] [ 0.8431946 -0.78716  ] [ 0.63963675 -0.22965512] [0.4267955  0.52129996] [-0.02504624  0.31701136] [ 0.59795237 -0.35160634] [-0.34593368  0.33518678] [0.6156919 0.5245703] [ 0.5956273  -0.12883337] [ 0.63566846 -0.75958186] [ 0.08897819 -0.98848265] [-0.35082835 -0.26707694] [-0.20765461  0.3909344 ] [-0.22288379 -0.10261276] [-0.52491176 -0.2534964 ] [-0.54546076 -0.85360813] [0.20689718 0.3364256 ] [ 0.2389807  -0.07301191] [-0.24042843  0.7266673 ] 
[ 0.03816357 -0.04163624] [-0.94871587 -0.31750435] [-0.23960876 -0.20235443] [0.16034473 0.06720509] [0.20862663 0.6668121 ] [0.61878747 0.5732919 ] [ 0.9038634 -0.8264892] [-0.61562806 -0.8478286 ] [0.29494944 0.7960611 ] [-0.40895617  1.0316311 ] [-0.77538586  1.0464334 ] [-0.1038045 -0.4617246] [ 0.26743338 -0.3664461 ] [-0.34160912 -0.53558296] [0.5911562  0.02911914] [-0.4811511   0.01359271] [ 0.22579515 -0.44639364] [-0.2764425 -0.6552681] [-0.63075495  0.45192152] [-0.7016797   0.15580267] [ 0.35353574 -0.6807709 ] [-0.04893439 -0.24508807] [0.73534834 0.11919166] [0.6066527  0.04242437] [-0.8194954   0.33726317] [0.912002  0.2008224] [0.64757305 0.766011  ] [-0.64831537 -0.38397256] [-0.07198431 -0.16655535] [0.58926356 0.74848545] [-0.38361642 -0.5778197 ] [ 0.3149592  -0.38553292] [ 0.48959592 -0.03610748] [ 0.0203884 -0.8524004] [-0.06699283 -0.13993567] [ 0.01413816 -0.82385856] [0.3146687 0.5657072] [-0.5665204  -0.80857086] [-0.95272285  0.283943  ] [0.21418807 0.09339482] [-0.5361058 -0.218188 ] [ 0.18895267 -0.00646628] [ 0.97557104 -0.7271205 ] [ 0.3902891  -0.19136247] [-0.14360078  0.43519554] [0.38487232 0.982512  ] [-0.74321145 -0.7917807 ] [0.44867763 0.15677384] [-0.45167866 -0.84116125] [-0.8286835   0.78838176] 
[-0.61626536 -0.35325688] [-0.5466872  -0.29000738] [-0.8611523   0.03811958] [-0.8647749  0.600713 ] [-0.53976    0.2170694] [0.75297415 0.43880042] [ 0.0587319  -0.21428688] [-0.34117982  0.4760196 ] [0.98827875 0.32367837] [0.11556683 0.46130103] [-0.06958877 -0.8797153 ] [0.21346428 1.073122  ] [-0.45778355  0.32244864] [-0.50948805 -0.07850768] [-0.82154274 -0.14846186] [ 0.40856022 -0.5119313 ] [0.12331719 0.59925765] [ 0.75081545 -0.42975596] [-0.1944219 -0.6054823] [0.92041063 0.95947725] [0.01535776 0.7895419 ] [-0.1416429  0.4889576] [-1.0122569   0.66264087] [-0.74990547  0.59410685] [0.55872375 0.35946074] [-1.0174956 -0.5251337] [-0.56359184 -0.41111752] [-1.0282012   0.93686396] [-0.18634197 -0.37756374] [-0.29649612 -0.15715577] [ 0.11072946 -0.0202021 ] [0.592692   0.05878199] [0.8286832  0.81926584] [-0.8976906  0.8177194] [-1.0819786  0.5914284] [-0.3978322  0.5960617] [0.5770346 0.4519638] [ 0.5800609  -0.39064172] [-0.8381614  -0.19403964] [-0.65295094  0.38990217] [-0.30780056  0.9512204 ] [0.28194416 0.6449611 ] [-0.73495066  0.72402894] [ 0.84551436 -0.02587616] [0.21250588 0.5296196 ] [-0.65032274  0.00513215] [-0.20267394 -0.707252  ] [-0.26493114 -0.8636554 ] [-0.9483762 -0.7296674] [0.92623025 0.09905908] 
[ 0.9316443  -0.13500424] [-0.37636775  0.01228373] [-0.12097662 -0.78867066] [ 0.28165263 -0.5679236 ] [0.23199229 0.43744788] [-0.47194922 -0.88261163] [ 0.7855238  -0.08571056] [-0.65967184  0.9844207 ] [-0.6532543   0.24771355] [ 0.9673579  -0.52163976] [-0.71550125 -0.7572301 ] [-0.30457887 -0.6400367 ] [ 0.57593316 -0.932977  ] [0.10748879 0.84323114] [0.7165851  0.08027587] [-0.38771847 -0.0602428 ] [-0.0488828  -0.24043497] [-0.7385793   0.77320844] [-0.09348441 -0.5210693 ] [-0.25753534 -0.08205459] [0.6620221  0.55691445] [ 0.42655328 -0.7519414 ] [-0.2866944   0.09899861] [-0.6748579  -0.34901345] [ 0.8073372 -0.5944203] [ 0.2728934  -0.51159817] [-0.7734851  -0.45959866] [0.7482607  0.66602254] [ 0.62520736 -0.01290431] [-0.87098664  0.04435799] [-0.18170464  0.6371533 ] [-0.59633154  0.07860406] [-0.40193978 -0.19696529] [0.77267647 0.10571903] [ 0.04973932 -0.05736467] [-0.08110646  0.5700331 ] [0.7841694 0.9106694] [ 0.57380676 -0.36918622] [ 0.3762694  -0.12479375] [-0.49065876  0.68174314] [-0.9231473   0.80352396] [-0.07704507  0.27440295] [0.31870785 0.79023546] [0.27333936 0.22786717] [-0.86669594  0.03681605] [-0.69966197  0.47486752] [0.02444384 0.36045557] [-0.91665417 -0.83041596] [ 0.43264678 -0.8558313 ] [-0.85748655 -0.97578305] 
[0.9130028 0.4750167] [-0.29349717 -0.40692884] [-0.30059355  0.54930705] [ 0.3227412  -0.62960887] [-0.65896535 -0.6661631 ] [0.54460603 0.52343446] [-0.24590598 -0.963421  ] [-0.61165607  0.9304092 ] [-0.17792574  0.3960896 ] [ 0.24932714 -0.23612072] [-0.5886255 -0.7572272] [0.31889674 0.70713925] [0.37667933 0.2184757 ] [-0.93019295  1.0022475 ] [ 0.583333  -0.3490859] [0.85697466 0.11116153] [0.06187958 0.4035449 ] [0.62353957 0.31295723] [-0.7438085 -0.323465 ] [ 0.85616726 -0.5507688 ] [-0.25566596 -0.13584623] [-0.24019235  0.3621895 ] [ 0.76714903 -0.38230425] [-0.47023952 -0.47369877] [1.0606078 0.4229818] [-0.22591329  0.68989205] [0.92501336 0.75102687] [ 0.6343662 -0.4325693] [ 0.21613735 -0.06753349] [0.59353805 0.40542033] [0.46243575 0.26076266] [-0.43763876  0.19217579] [1.2673035 1.0284592] [-0.61569023 -0.5166876 ] [-0.4385797  0.6056426] [ 0.63557065 -0.57297724] [0.01170539 0.6814061 ] [0.46560308 0.08447441] [0.18069538 0.01672109] [-0.40490308  0.13004398] [0.3777706 0.7466458] [0.2725827 0.5222431] [-0.6798567  -0.07688505] [-0.9813368 -0.5066423] [0.45292342 0.9836199 ] [-0.8016438  -0.19701137] [ 0.60014194 -0.5919287 ] [0.11016989 0.4661426 ] [ 0.2319709  -0.62395054] [-0.28923085  0.56758356] 
[ 0.10845303 -0.98954076] [ 0.52198154 -0.9293773 ] [ 0.49146757 -0.5950389 ] [ 0.91614693 -0.2641185 ] [-0.34613678 -0.7022239 ] [-0.3009758  0.6887595] [ 1.0804856  -0.32792434] [-0.01496295  0.37959847] [0.8602072  0.12154551] [-0.2169486  -0.17475632] [ 0.3912363 -0.9935635] [ 0.23917867 -0.28901398] [ 0.58839464 -0.8140187 ] [ 0.17640454 -0.03805422] [ 0.28465104 -0.8702928 ] [0.15996757 0.12296917] [0.12132019 0.20697533] [0.35293588 0.609978  ] [-0.46035856  0.6500988 ] [-0.00348864 -0.8458834 ] [-0.88289815 -0.33152336] [0.56979394 0.41536188] [0.5772299  0.03453811] [ 0.172488   -0.51570624] [-0.05152448  0.05742776] [-0.5307092  -0.36938724] [0.48854062 0.6607149 ] [0.99669504 0.8662267 ] [ 0.2851304  -0.15750389] [0.27235472 0.57130325] [-0.7633276  -0.18019022] [ 0.97756696 -0.07865135] [0.4417073  0.32922164] [-0.33308458 -0.12184635] [-0.03301466 -0.7939238 ] [-0.95161647  0.6633941 ] [-0.45385838  0.03615753] [-0.40254885  0.8813585 ] [-0.48140648 -0.14068638] [0.7454605  0.68386716] [-0.6277972  0.6052866] [-0.08362623 -0.03406226] [-0.73304003 -0.838797  ] [ 0.45587862 -0.0070777 ] [-0.12629859  0.45901647] [ 0.5310258 -0.6821837] [ 0.2204503  -0.72929186] [0.50275016 0.3139103 ] [ 0.9132292 -0.862084 ] [-0.88589054 -0.43562585] 
[-0.47658864 -0.5060424 ] [ 0.8125092 -0.5009076] [-0.45610055  0.5187965 ] [-0.10052031  0.55342114] [-0.8692677  -0.02485761] [-0.8449572  -0.93923557] [ 0.90069056 -0.7860513 ] [ 0.15265714 -0.24235207] [-0.2174976  0.7351247] [-0.9563532   0.32757938] [0.92678887 0.12033637] [ 0.87364495 -0.89548427] [-0.09294801 -0.16192675] [0.5311078 1.2803507] [-0.41747457  0.6261071 ] [-0.53433913  0.44841814] [-0.07213502  0.9440107 ] [ 0.21705455 -0.30098724] [-0.77180845 -0.69750637] [-0.5493661  -0.49806666] [0.70123214 0.12244558] [-0.09610473 -0.7462754 ] [0.57739234 0.4698152 ] [-0.7154603  0.6292459] [ 0.23627998 -0.62297374] [0.20869134 0.1587816 ] [-0.3763608  1.0807862] [0.69995075 0.33804467] [-0.07540888 -0.17646892] [0.30194694 0.09086374] [-0.83787024 -0.10324129] [ 0.94835305 -0.05608396] [-0.4552793  0.6559262] [-0.15646398 -0.39938796] [-0.26736274 -0.12795313] [0.61876464 0.0967056 ] [-0.59023744  0.7556602 ] [0.75916374 0.7411569 ] [-0.5224076  -0.09752131] [0.9699793  0.54402494] [-0.9456652 -0.8695908] [-0.07213724  0.81844044] [ 0.0774036  -0.00437498] [-0.7890526   0.31356022] [ 0.64420635 -0.23915999] [0.5512237 0.9289533] [-0.59246707  0.04665926] [-0.4257241   0.58570886] [0.15518673 0.26916483] [ 0.5958283  -0.20805906] 
[0.8301801  0.06605773] [-0.6840904   0.39179823] [ 0.5865227  -0.36647666] [0.7143585 0.8122865] [-0.446191   0.9670429] [-0.8619459  -0.51815414] [-0.7749193   0.86579394] [ 0.1652162 -0.6179769] [-0.26272222  0.3084095 ] [-0.8330718   0.76483274] [0.60720706 0.01041355] [ 0.7798987  -0.26620534] [0.8833317 0.5518707] [ 0.18445298 -0.45205984] [0.6789666  0.07100989] [-0.6060676 -0.6570269] [0.11951137 0.05479924] [0.43870723 0.7805161 ] [-0.8411868   0.46299297] [-0.62517613  0.71635413] [0.638127   0.08158751] [ 0.27759898 -0.3471132 ] [-0.1325573   0.54917675] [-0.15636273 -0.378501  ] [-0.08646823  0.5624015 ] [-0.26159048 -0.77076066] [0.42402804 0.65195644] [-0.79872507 -0.52025175] [-0.71605605 -0.30411717] [-0.09929805  0.49765268] [0.33987868 0.11361048] [-0.25766656  0.5546485 ] [0.08541979 0.88789696] [ 0.41112942 -0.8177834 ] [ 0.45761675 -0.2918579 ] [ 0.47791606 -0.80278397] [-0.65023714  0.71147454] [-0.5456409  0.6740823] [-0.44144782  0.28576383] [0.38830113 0.02530951] [-0.38937864 -0.57471126] [-0.9336213 -0.3921072] [0.30632558 0.8766096 ] [0.742409  0.5321295] [0.5768947 0.3299698] [-0.4794263   0.81439006] [0.34146464 0.12088126] [-0.77802104 -0.10588891] [-0.07928346  0.7291272 ] [ 0.09329644 -0.23919891] 
[ 0.95360065 -0.7785588 ] [-0.15490314 -0.91595066] [0.47980824 0.8361531 ] [-0.43992534  0.7166833 ] [-0.41556355  0.8215403 ] [0.36455464 0.6876281 ] [-1.1073549  1.0034349] [ 0.30997282 -0.3126843 ] [ 0.5154204 -0.3591441] [ 0.74550766 -0.7748392 ] [0.40737197 0.08139695] [-0.9612856  -0.61793965] [-1.0600823   0.15356643] [-0.48235917  0.4127452 ] [-0.49041408 -0.18413119] [ 0.5558522 -0.5859562] [0.80579    0.70452774] [0.33560938 0.18644314] [ 0.78460497 -0.62933964] [-0.9919838  -0.52868533] [ 0.43923444 -0.93836516] [-0.01240163  1.1735514 ] [0.6013697  0.10728449] [-0.83281857  0.7348459 ] [ 0.23785721 -0.6980351 ] [-0.74429214  0.70096976] [0.3384005 0.6585736] [0.7579578 0.1435447] [ 0.0348927  -0.13914518] [-0.36610684 -0.13080809] [0.5853428  0.07560024] [ 0.72793865 -0.2187311 ] [0.26233274 0.21505794] [0.23154785 0.3577103 ] [-0.5145629  0.1054168] [-0.6862888  -0.17304344] [-0.02466586  0.30444852] [0.90106213 0.20130213] [0.48718783 0.01253212] [ 0.42072538 -0.9804174 ] [-0.33869952 -0.39857605] [ 0.02722968 -0.95310885] [-0.6377082  -0.49077836] [ 0.8727913  -0.25943074] [-0.10619221 -0.52992916] [ 0.22156014 -0.43863356] [-0.58601487  0.03314526] [-0.9889884  -0.98467195] [-0.5618624 -0.9265573] [-0.7839485 -0.3222787] 
[0.6051714  0.14409728] [ 0.02533545 -0.41302234] [ 0.86350745 -0.20596991] [-0.8258145   0.23413303] [-0.7723232 -0.3095537] [0.01482388 0.74844503] [0.06648289 0.46811086] [ 1.0650238 -0.6734287] [-0.2577332  0.0527292] [0.03646036 0.08561923] [0.9286365 0.6280492] [ 0.17486982 -0.2829984 ] [0.5626918 1.1261495] [ 0.55750763 -0.78083897] [ 0.18791321 -0.68169844] [-0.41532025 -0.5631925 ] [0.20759091 0.37317982] [-0.7710247  -0.23232223] [-0.08752698 -0.26189396] [-0.9078721  -0.16981013] [ 0.35243416 -0.86569035] [-1.0176536  -0.10778046] [0.77342886 0.40153798] [ 0.39724016 -0.20406102] [ 0.22722186 -0.9076388 ] [0.3401856  0.70829004] [0.22514693 0.7473972 ] [ 0.4479461 -0.7588832] [ 0.8049066  -0.86711234] [ 0.06793495 -0.7157258 ] [-0.9390032 -0.2841782] [-0.23141746  0.06907768] [ 0.43816248 -0.75751084] [-0.470231    0.27229545] [-0.06748585  0.74160457] [0.36582294 0.5806813 ] [ 0.34096363 -0.30859834] [ 0.30191123 -0.61769867] [-0.43139502  0.40950972] [0.04535637 0.47447866] [0.7973625 0.5928429] [ 0.9155141  -0.18243659] [-0.2800236  0.1199906] [-0.3279297   0.28002372] [0.34089717 0.4546853 ] [-0.25089422 -0.6662796 ] [-0.13894132 -0.7148117 ] [ 0.78019404 -0.3082451 ] [-0.6910805 -0.9491045] [0.29164478 0.27380463] 
[-0.31879166 -0.8565762 ] [-0.1807422 -0.377565 ] [0.35424128 0.2115585 ] [-0.27081254 -0.5642149 ] [ 0.97607195 -0.09199676] [ 0.37654847 -0.71889406] [ 0.05056911 -0.88133353] [0.09029999 0.99162847] [-0.03878254 -0.65843093] [-0.72614366 -0.05555128] [-0.54739493 -0.848414  ] [ 0.49062702 -0.07979941] [-0.5567242  0.6033369] [-0.609901    0.60635114] [-0.2142464   0.47132084] [0.5180613 0.4496553] [ 1.280201  -0.6269483] [ 0.92227095 -0.22103621] [-0.22897619 -0.3192258 ] [-0.06710692 -0.6994156 ] [-0.04249922  0.0757039 ] [0.48867452 0.8257901 ] [ 0.29444668 -0.37400362] [ 0.08215608 -0.581717  ] [-0.3353511  -0.20992486] [-0.02494342  0.87181807] [ 0.101286  -0.2293025] [ 0.14680351 -0.64546263] [-0.1119125   0.25246865] [-0.02220434 -0.1964424 ] [0.98769677 0.76062953] [0.3877295  0.36407802] [ 0.38223854 -0.37205258] [-0.08550341 -0.59952205] [0.07531317 0.40760776] [-0.60521907  0.85583156] [0.7581907  0.37206122] [0.02275114 0.57147723] [-0.78271717  0.412559  ] [-0.5978406   0.46613935] [-0.29594755  0.63189936] [ 0.97032785 -0.7468144 ] [0.00759419 0.9175684 ] [-0.10345945  0.8049705 ] [ 0.10718875 -0.17146514] [-0.42843288 -0.59355384] [ 0.5235964  -0.22691898] [ 0.02255092 -0.01534904] [0.15455806 0.73115426] [ 0.9614787  -0.18483159] 
[0.6550378 0.5290556] [0.1470579 0.9120943] [-0.599051   -0.78147155] [ 0.70792395 -0.12170037] [0.6939377  0.78618044] [-0.8750848  0.7669295] [-0.02397218  0.08445834] [0.33257464 0.91635823] [-0.76896375  0.2172641 ] [0.30670813 0.6615952 ] [ 0.23693976 -0.5785413 ] [-0.5493336  -0.12998112] [ 0.3473348 -0.4898758] [-0.2664149  0.7111368] [-0.6700979  0.7918825] [0.6658181  0.45317915] [-0.09858603 -1.1751294 ] [0.47573903 0.6682892 ] [ 0.48095226 -0.71429944] [0.3569339  0.53013986] [0.16715886 0.5245262 ] [0.6567141  0.38569838] [-0.67295253  0.29808584] [-0.54494125  0.14562173] [ 0.09984145 -0.4613007 ] [-0.13152368 -0.53752035] [0.6023383 0.97152  ] [-0.86949915  0.9863744 ] [ 0.06277557 -0.11541313] [-0.6629617  0.4365264] [0.77234524 0.8494506 ] [-0.6150526  -0.39909634] [ 0.0726194  -0.23977467] [-0.45074806 -0.32193404] [0.69145006 0.97451395] [-0.25051346  0.7399959 ] [-0.4177274 -0.1193511] [-0.5919638   0.11249176] [0.91394037 0.03852582] [-0.13185449  0.1733528 ] [-0.6016409  0.6550364] [ 0.15321627 -0.0999248 ] [0.31877795 0.25094315] [-0.8619173   0.48889208] [-0.52160585  0.5515626 ] [0.6450696 0.607917 ] [0.10500193 0.04033978] [-0.71424806  0.5506923 ] [-0.45718125 -0.00660915] [-0.43145183 -0.73234326] 
[ 0.2591154 -0.8913359] [ 0.49729046 -0.3648264 ] [-0.9997306   0.02225828] [-0.9062962 -0.4476609] [ 0.41395298 -0.87462074] [ 0.67867696 -0.9923602 ] [-0.42696258  0.54540116] [-0.2880701 -0.7326222] [-0.0867281 -0.1956362] [ 0.61668855 -0.15712284] [0.42973942 0.93633276] [-0.28049058  0.97247475] [-0.5069033  0.8807613] [-0.5092454  0.1702791] [ 0.29980323 -0.42846173] [0.57759917 0.20395471] [-0.6790979 -0.869853 ] [0.4260921  0.33277082] [0.932095  0.5220756] [0.9015454 0.405081 ] [-0.4038956  -0.78927016] [0.56364775 0.28829843] [-0.7186612  -0.11555932] [1.0985655  0.16514193] [0.03629344 0.15588222] [-0.41139928 -0.02210245] [-0.27450517 -0.819146  ] [ 0.5210032  -0.09084755] [0.6401471 0.6601774] [-0.4145323   0.42401066] [0.10604296 0.8696171 ] [-0.21116732  0.46199653] [ 0.5770688  -0.26250815] [-0.54762214  0.3965812 ] [ 0.65637094 -0.27544364] [ 0.22894642 -0.2819635 ] [ 0.36569497 -0.6737956 ] [ 0.7364082 -0.5936418] [-0.30845004 -1.0522761 ] [-0.7769756  0.0317238] [-0.46481463  0.6709604 ] [-0.90580803 -0.1960295 ] [-0.26050332 -0.91556257] [-0.686458   -0.12693225] [ 0.05053458 -0.14563811] [0.06187536 0.19026335] [-0.98015237 -0.07180968] [0.9269985  0.03806456] [ 0.35508454 -0.3762723 ] [0.54798275 0.54584295] 
[0.0425921 0.9520276] [-0.7488996 -0.9661047] [0.5403164 0.6143111] [-0.75958556 -0.46883434] [-0.96489525 -0.41338277] [0.5462837  0.03592106] [-0.3038088 -0.2565214] [-0.99729276 -0.40039894] [0.2929175 0.9483889] [ 0.43258214 -1.0002056 ] [0.53558195 0.5190013 ] [ 0.29921275 -0.13140431] [-0.46552902 -0.44156408] [-0.5564347  -0.74728847] [-0.11290389 -0.1195113 ] [ 0.88877803 -0.14004572] [-0.4904222   0.82791466] [0.9671623 0.6864733] [0.9826558  0.08896466] [ 0.9255367  -0.84878993] [-0.2686385 -0.5492375] [-0.6083338 -0.7183941] [0.4297943  0.72698325] [ 0.34156382 -0.5417351 ] [0.79308224 0.5123933 ] [-0.05283334  0.5887442 ] [-0.49432173 -0.2334722 ] [ 0.8208396  -0.34284744] [-0.06423625  0.7397637 ] [ 0.57692206 -0.76628995] [-0.5439148  -0.87501323] [ 0.38358584 -0.20085053] [-0.6054953  0.8601893] [ 0.1334936 -0.7241459] [0.07538119 0.1513083 ] [-0.7336108  -0.45302367] [ 0.72784173 -0.08310135] [ 0.09315428 -0.134368  ] [-0.9122001 -0.6685004] [-0.10891672 -0.5816291 ] [-0.84198207  0.5585625 ] [1.0852509 0.5033311] [ 0.8304349 -0.5990004] [ 1.0441197 -0.6891032] [0.96766484 1.0354216 ] [0.4234456 0.9622875] [ 0.13907956 -0.48091644] [-0.12600823  0.18712187] [-0.8538369   0.24468653] [ 0.9623557 -0.6197847] 
[0.58519024 0.81579757] [0.8874032 0.9202712] [0.04291928 0.95461583] [ 0.5146204  -0.67665714] [-0.04619979  0.43666235] [-0.50531936  0.28123036] [ 0.33320096 -0.67460054] [0.13017063 0.54325384] [-0.00220867 -0.9757938 ] [-1.2626021  -0.23823507] [ 0.57170814 -0.49493995] [-0.0119527 -0.5081416] [-0.63734     0.74379086] [ 0.45772287 -0.8092014 ] [-0.15311441 -0.85770243] [-0.04873817  0.40882596] [-0.77351356 -0.33827218] [-0.21484518  0.92302006] [ 0.98651004 -0.9101774 ] [ 0.52201587 -0.25655186] [-0.21508363  0.50852996] [0.83685285 0.9018572 ] [-0.09280989 -0.0214271 ] [ 0.3280433  -0.23366639] [-0.11890701 -0.01851249] [ 0.06620704 -0.2548712 ] [-0.61681414  0.8364782 ] [-0.7963926   0.01191582] [-0.5625073 -0.9626587] [-0.7664833 -0.5402528] [ 0.89501977 -0.32573882] [1.0226605  0.06704713] [-0.00081653  0.10449871] [-0.03127854  0.31055433] [-0.49968374 -0.5008967 ] [0.76325   0.8914174] [ 0.76017785 -0.16260019] [ 0.560731   -0.04732853] [-0.0049203  -0.59063977] [ 0.1822606 -0.6277282] [-0.27881038  0.5813236 ] [-0.4629825 -0.940638 ] [-0.7391197   0.79861444] [ 0.13670632 -0.26413077] [0.68656236 0.717434  ] [-0.33561793  0.38723612] [0.5422456  0.30930138] [-0.6968098   0.75176615] [ 0.0781891  -0.43505514] [-0.14954363 -0.9248578 ] 
[-0.7442664  0.5310935] [-0.99997675 -0.16686834] [ 0.04502036 -0.89073116] [ 0.9461563  -0.54774934] [-0.39160255 -0.39211497] [-0.5391667 -0.9970524] [0.4586896 0.933691 ] [-0.55141306  0.3260944 ] [0.48379266 0.6968508 ] [-0.1547416 -0.3941382] [-0.34940973  0.42524266] [ 0.6335589  -0.63677204] [-0.25811797  0.8038804 ] [0.61338705 0.9697168 ] [ 0.49797755 -0.12965173] [0.17075723 0.40598646] [-0.8536072   0.17295183] [ 0.4081233 -0.5813994] [0.56126344 0.16754556] [ 0.90444356 -0.9151554 ] [-0.46934772  0.20310776] [-0.40688017  0.42884833] [ 0.466688   -0.71385366] [-0.08324068  0.22152275] [-0.4303852  0.9674335] [0.486066   0.49600285] [ 0.31102914 -0.05609831] [0.7839918  0.28703338] [0.5904137 0.46916  ] [-0.3194059   0.35992005] [-0.47706795 -0.5635375 ] [-0.19632827  0.7028296 ] [0.606255   0.43248928] [0.3223553  0.15279897] [0.7624233  0.02117094] [-0.37072286 -0.64527565] [0.5474727  0.46739104] [-0.23128992 -0.94961315] [ 0.67799467 -0.97716403] [0.40739956 0.9405142 ] [-0.06661737 -0.65879   ] [0.46780226 0.5055195 ] [0.15092066 0.80533373] [-0.83860266 -0.1191459 ] [0.4369079  0.72528094] [-0.6414888   0.60000694] [ 0.10541415 -0.20689264] [-0.73656994  0.73059154] [-0.6854536 -0.3804243] [-0.41990894  0.7428281 ] 
[0.345406  0.5933628] [-0.4990642  0.2497482] [0.14349197 0.66566074] [ 0.81217414 -0.97568643] [ 0.34803984 -0.8963284 ] [ 0.09771733 -0.42473453] [-0.3864468 -0.294083 ] [ 0.2425849  -0.33190006] [ 0.4653981  -0.19094522] [-0.8632936   0.56751966] [-0.42848334 -0.13446625] [ 0.37088776 -0.3350877 ] [-0.88682866 -0.2521579 ] [0.8888972  0.28346878] [0.33243996 0.34852225] [-0.6125345  -0.07937455] [ 0.49136102 -0.7132962 ] [-0.4548128  -0.36340386] [-0.13596214  0.96073747] [-0.8649949   0.03740199] [-0.64127064  0.9413531 ] [-0.773393   -0.19279799] [0.4244474 0.4902236] [-0.2654921  -0.10321022] [-0.373722   -0.36986348] [-0.7582812  0.0676633] [-0.58055687 -0.40460742] [0.2555148 0.834917 ] [ 0.3615603  -0.77428824] [-0.69454616  0.9745993 ] [-0.29158697 -0.29079324] [0.3515457 0.4583151] [ 0.1893601  -0.29578096] [-1.102364  1.097952] [-0.5903473   0.06665071] [0.2815015  0.24866821] [-0.39912352 -0.45930418] [0.19533657 0.73219126] [ 0.8934675 -0.7881884] [-0.6903428   0.88947254] [0.5311303 0.6372509] [-0.53667486  0.04643461] [0.46033943 0.23148671] [-0.12563662 -1.0979478 ] [ 0.16585211 -0.4937969 ] [-0.09949151  0.915162  ] [-0.20192936  0.6796032 ] [-0.6229188  0.344921 ] [ 0.9540139 -0.7962138] [-0.9833601  -0.13283442] 
[-0.81474906  0.4967687 ] [ 0.82909733 -0.13195805] [-0.48257673 -0.13119335] [ 0.44689563 -0.9818917 ] [0.17890798 0.22658338] [ 0.2753765  -0.51595587] [ 0.42810544 -0.81721705] [-0.6014593  0.7549401] [ 0.4774463 -0.9725089] [-0.5032475 -0.571187 ] [-0.45838735 -0.5048805 ] [-0.8749474  -0.08211897] [0.24912436 0.037351  ] [ 0.12940072 -1.0138141 ] [0.6597295 0.5240013] [0.3669292  0.49298465] [0.8385119  0.11163733] [-0.6263451  0.2566966] [0.48576298 0.4758348 ] [ 0.04289805 -0.8630826 ] [-0.2577741   0.84153324] [0.16889782 0.07666389] [-0.5136156 -0.1819876] [0.67974234 0.5366676 ] [0.40582725 0.01027469] [ 0.09154757 -0.4016488 ] [ 0.29329753 -0.12432795] [-0.17290619  0.1964872 ] [ 1.0268476  -0.80023444] [ 0.8037731  -0.34348154] [ 0.00167083 -0.43110046] [-0.24445133  0.21628022] [-0.9034644   0.35837856] [ 0.68285877 -0.31585643] [ 0.39797372 -0.16062087] [ 0.1398148  -0.14543512] [-0.8365615 -0.5819041] [-0.8590161 -0.6287066] [0.32843876 0.76338124] [0.9414887  0.32795036] [-0.46589905 -0.46394336] [-0.06714886 -0.5424048 ] [0.34324875 0.02878944] [-0.28622806 -0.29242167] [0.65711117 0.5785857 ] [-0.38440832  0.8275769 ] [ 0.90563005 -0.3465149 ] [-0.2911501   0.01126831] [0.8822416 0.7526389] [-0.79486406 -0.21453851] 
[0.10674238 0.00626495] [-0.6122739   0.71763355] [0.35388157 0.6758168 ] [0.7175286 0.4967117] [-0.1215788  0.2210935] [-0.6792692   0.34729084] [-0.6414935  0.3878992] [-0.5408037 -0.7648974] [-0.66943103 -0.9960157 ] [0.43747923 0.4648021 ] [ 0.0298667 -0.6772744] [-0.83289135 -0.96174204] [-0.7805582  0.5106537] [-0.6289809  -0.56251484] [-0.8360403  -0.77106833] [-0.00828199 -0.00028668] [-0.44397196 -0.82926923] [-0.15261102 -0.47632736] [-0.56089216  0.9197256 ] [0.23260097 0.11375689] [-0.16844979 -0.14211133] [0.08181001 0.3928596 ] [ 0.4042922  -0.65661216] [-0.05940158 -0.05345692] [0.6234295 0.2833071] [ 0.02593649 -0.3579907 ] [-0.02418878 -0.43848157] [-0.50142485 -0.50983244] [ 0.42059273 -0.20910242] [-0.25838795  0.7789927 ] [-0.47753564  0.54068315] [-0.00799988 -0.7527342 ] [ 0.5696997  -0.48572126] [-0.06730578  0.49754378] [0.28149122 0.30013   ] [-0.50844175 -0.74312073] [0.4468873 0.0713132] [0.6722354 0.6427767] [ 0.68665236 -0.02981068] [-0.01950585  0.54079777] [ 0.21582566 -0.67543423] [1.0231854 0.7228011] [ 0.2458569 -0.8909192] [-0.22434781  0.60707533] [ 0.80354804 -0.59305453] [-0.86605275  0.7547009 ] [-0.22119012  0.08352192] [ 0.9361316 -0.8668705] [ 0.29663602 -0.8517892 ] [-0.24906214  0.60762906] 
[-0.13305554  0.9943647 ] [ 0.11811857 -0.3576757 ] [-0.5597773  -0.29895893] [-0.25493345 -0.86257267] [-0.2608516  -0.07152296] [0.44547552 0.31345898] [ 0.4175313 -0.9832726] [-0.5646652   0.32336858] [-0.03202127 -0.989373  ] [0.6089893  0.54561913] [ 0.09683833 -0.86707336] [0.5330301  0.16742718] [0.4518657  0.23243622] [ 0.4939502  -0.23504168] [-0.9205029   0.23910886] [0.03979544 0.38130036] [-0.74933535 -0.44219786] [0.6420134 0.59125  ] [0.7667486 0.4408727] [0.14460194 0.23170777] [0.72854745 0.08105553] [ 0.26478264 -0.6870466 ] [-0.05215756  0.4327942 ] [-0.4581146  -0.59549165] [-0.37234637 -0.51699877] [-0.4916224   0.24045232] [0.6978364 0.3207603] [-0.74199986 -0.53941494] [0.2744718  0.07223874] [0.44726887 0.23491193] [ 0.55202836 -0.00278747] [ 0.38388836 -0.33261073] [1.1234213  0.32055563] [-0.10569461 -0.4131692 ] [-0.33241072 -0.01623183] [-0.31645772  0.09914797] [-0.47072995  0.3239379 ] [0.6298795 0.5560505] [ 0.52170265 -0.6245552 ] [-0.5099928  0.3555794] [ 0.04993181 -0.17762558] [-0.6244645 -0.5231657] [-0.61940986  0.7160529 ] [-0.51320666  0.11467434] [-0.92204136  0.3336948 ] [-0.3539453   0.79583836] [ 0.77623636 -0.34941876] [0.8019218  0.99231535] [0.65083134 0.6897427 ] [-0.5019825  0.1534048] 
[-0.8654882  -0.81016415] [ 0.9977852 -0.3467215] [0.4963678 0.6133301] [0.7160466 0.9952566] [-0.51700705 -0.91929835] [-0.17761697 -0.73983866] [-0.9551482  -0.27914634] [0.5674765  0.13236138] [-0.374444    0.30868402] [-0.46280554 -0.6680091 ] [0.6018647  0.55071396] [ 0.5977632  -0.61889595] [0.63534254 0.2712222 ] [-0.03940552 -0.19589137] [ 0.47357267 -0.10339475] [-0.09339342  0.7040919 ] [ 0.37022018 -0.12162238] [ 0.27598754 -0.13024516] [-0.59195745  0.11714585] [0.8066558  0.78172076] [-0.36589792 -0.02120301] [-0.5767282  0.9912622] [0.9622358  0.29901785] [0.4257054 0.2476461] [ 0.00319392 -1.0758579 ] [-0.2871348  0.5683173] [-0.03799303 -0.11911962] [ 0.6734497 -0.3480966] [0.0113089 0.5953623] [0.41840246 0.1095728 ] [-0.22889987 -0.7911821 ] [0.414515   0.27563927] [-0.4730666   0.49945065] [0.07856556 0.42469355] [ 0.84295547 -0.5713708 ] [-0.71559936  0.4667471 ] [0.21939485 0.39927915] [0.67630994 0.6056219 ] [0.9218403  0.07187016] [ 0.29022858 -0.23854363] [-0.37938035  0.10289628] [-0.13273756  0.80029637] [0.4796191  0.14336233] [-0.29015067 -0.8960213 ] [-0.9365125  -0.15332972] [-0.83086926  0.21369392] [0.761946  0.7658296] [ 0.31809083 -0.57753634] [0.72599363 0.7721869 ] [-0.60669285  0.47485217] 
[-0.42696092  0.60528064] [ 0.9944758  -0.93994796] [0.79473174 0.24526107] [ 0.94676524 -0.06998096] [ 0.6947759  -0.87521183] [-0.3294419 -0.8659669] [0.9506863 0.6339478] [0.7050948 0.8759305] [-0.82979304 -0.22880481] [-0.78477234 -0.27518624] [-0.46811035  0.2414419 ] [-0.3897176  -0.49481598] [-0.48757166 -0.49716565] [0.92773765 0.20845068] [ 1.0279361  -0.24978705] [-0.35085055  0.46731868] [-0.359368  -0.4355559] [-0.47386762 -0.63633406] [-0.5367823  -0.36591843] [ 0.29827994 -0.9514286 ] [-0.6286945  0.541489 ] [-0.70615613 -0.3147097 ] [ 0.72931784 -0.69014937] [-1.0176489  -0.21347816] [-0.5782834  -0.05573747] [ 0.48851663 -0.08693297] [0.19797125 0.19050519] [-0.49214673  0.61003935] [-0.01250029  0.23411483] [-0.45926523 -0.6437109 ] [-0.16654935  0.54116714] [-0.7434084  -0.08575044] [-0.00674896  0.33241212] [0.22496323 0.2168246 ] [0.6304869  0.60680586] [-0.21797127 -0.2221854 ] [0.68021613 0.9789023 ] [ 0.7790386  -0.25706547] [-0.60966694 -0.02121492] [ 0.4832829  -0.01486186] [-0.03363827  0.67646086] [-0.27719244  0.71958935] [-0.1863904  -0.34353378] [-0.09202018  0.52489394] [-0.747996  -0.6071616] [ 0.90288967 -0.64901674] [0.13545464 0.15862894] [-0.02075108  0.2894905 ] [-0.54034656  0.10532454] [-0.2556535   0.32333452] 
[-0.7175529   0.14175484] [-0.62945926 -0.4427139 ] [-0.5625804  -0.63432443] [ 0.6514219  -0.42858487] [0.85424757 0.9398531 ] [ 0.14252093 -0.7139978 ] [-0.25090352  0.5954645 ] [-0.26521856 -0.8259656 ] [0.11356982 0.6902417 ] [ 0.6650107 -0.3465261] [ 0.41868728 -0.25576395] [-0.4904269  1.0513719] [-0.42750403 -0.17027792] [-1.1213971   0.52614856] [0.5733144  0.22033486] [ 0.4945357  -0.36912492] [-0.08934861  0.02921619] [-0.7915411   0.32337737] [ 0.7515563 -0.7496319] [-0.3660498 -0.6533705] [-0.47267795  0.74841666] [0.08296947 0.05499701] [ 0.6679828  -0.56861734] [-0.20859171 -0.32258382] [0.01069888 0.816561  ] [0.3412525 0.0437512] [ 0.7994744  -0.65104306] [-0.6115818  -0.40100917] [0.22883776 0.10766044] [0.98177165 0.44410482] [ 0.45237005 -0.01602167] [-0.5447415 -0.7681192] [ 0.39084607 -0.15621991] [ 0.77449465 -0.40181848] [-0.87708586  0.05684572] [-0.30707008 -0.91589886] [ 0.5128919  -0.49371108] [ 0.28375196 -0.43116623] [-0.5858951  -0.23376244] [ 0.60289156 -0.21581285] [ 0.5015393  -0.74902743] [ 0.54554284 -0.52613336] [0.35478625 0.13156311] [ 0.8582894  -0.22535497] [-0.86766964 -0.96168905] [0.6537171  0.04947127] [ 0.5504881 -0.5311488] [-0.3098325 -0.9397923] [0.92298466 0.33573583] [ 0.8664102 -0.4690072] 
[0.22292723 0.35699993] [-0.3649006  0.6962185] [0.89432293 0.76971024] [ 0.47813395 -0.44507065] [-0.4367679  0.9267206] [-0.97943103  0.43209994] [0.41249233 0.24537908] [ 0.9802177  -0.37624112] [-0.32005626 -0.8421212 ] [-0.04124559 -0.17467555] [-0.24006851  0.97237164] [ 0.9441269  -0.32530615] [-0.18182404  1.1604891 ] [-0.99908715 -1.0304675 ] [-0.47651145 -0.1787204 ] [-0.49526906  0.92810655] [ 0.09721521 -0.00501005] [-0.22628741  0.03477161] [0.28361258 0.74916244] [0.6084732 0.1638886] [0.61059433 0.5893557 ] [ 0.64879334 -0.37915248] [-0.7564246 -0.2872952] [ 0.22691262 -0.19474693] [-0.12971207  0.502999  ] [0.5553502  0.54194546] [-0.5837553   0.06308116] [-0.48512185 -0.7552562 ] [-0.30534685 -0.2532587 ] [0.38880092 0.2608192 ] [-0.3275556   0.45127848] [ 0.41768226 -0.26205197] [ 0.11988727 -0.1344623 ] [0.13401961 0.44274074] [-0.7524961  -0.30983514] [0.15708654 1.0879284 ] [-0.07535866  0.6276326 ] [0.5574662  0.74837434] [0.8821056  0.01847436] [0.487092   0.67530274] [-0.20096242 -0.3464106 ] [-0.9783778   0.65310216] [ 0.6019614  -0.79109097] [ 0.15371476 -0.0720366 ] [-0.7625818   0.96113646] [-0.5706082 -0.8655316] [0.18969476 0.47773334] [-0.93511313  0.31743526] [ 0.06458375 -0.79346997] [-0.6549522  0.1359486] 
[-0.40728477  0.87663144] [0.63748044 0.9671344 ] [-0.48065832  0.9394473 ] [-0.13753226 -0.3049624 ] [-0.89930093 -0.8944695 ] [ 0.3840225  -0.08414201] [-0.5469568   0.22794062] [-0.49428377  0.15526351] [-0.2815825   0.64710444] [ 0.64139235 -0.0452992 ] [-0.29836178 -0.2748804 ] [ 0.61142904 -0.34364104] [-0.5818812 -0.8306233] [-0.1351756  -0.07686313] [ 0.93386626 -0.75260764] [-0.39359245  0.9577413 ] [0.49167278 0.11015201] [-0.21485929 -0.12566282] [ 0.4113922  -0.34099016] [0.9682359 0.3758389] [-0.1349813 -0.9801419] [0.08588894 0.32513264] [-0.44774282  0.60062957] [1.0252895  0.28978962] [ 0.61810154 -0.4941072 ] [-0.18522854 -0.4190699 ] [0.22929305 1.1825544 ] [ 0.32725805 -0.5408055 ] [-0.09371122  0.25690052] [0.11477683 0.3698045 ] [0.8414803  0.30868465] [-0.04094611 -0.40430468] [-0.42236668 -0.13850999] [-1.6333582e-04  8.1273949e-01] [ 0.46664837 -0.5167444 ] [ 0.01122445 -0.6556449 ] [-0.446384   0.4472592] [-0.67276156 -0.6453466 ] [-0.4201842   0.27494717] [ 0.2871119  -0.65870893] [0.00485457 0.46297273] [ 0.91623604 -0.559108  ] [0.77236354 0.86860824] [0.8328411  0.27082872] [ 0.25964132 -0.19357873] [0.5047958  0.06258804] [ 0.35487613 -0.1430842 ] [0.46299294 0.648943  ] [-0.7071275   0.66585946] [0.08059306 0.6893318 ] 
[-0.13739659 -0.24191903] [ 0.83012146 -0.49766147] [ 0.68842465 -0.03195886] [ 0.02819088 -0.38306344] [ 0.1460844 -0.3495776] [-0.92146116 -0.4560028 ] [-0.9872419   0.95670956] [ 0.9314944  -0.20968941] [ 0.45674172 -0.30838782] [0.3421863 0.6108601] [ 0.8935125  -0.19957545] [ 0.566596  -0.4681431] [ 0.9806646 -0.9484608] [0.20705761 0.31901196] [ 0.43145216 -0.9814621 ] [ 0.7061308 -0.5305495] [ 0.07457794 -0.44756532] [-0.6025901   0.08570765] [-0.43799794 -0.46452114] [-0.55739015 -0.15560399] [0.31644037 0.7504693 ] [-0.6970476   0.29584417] [-0.56968945 -0.67900467] [0.40642527 0.37031096] [-0.48536634 -0.16338241] [-1.0507166   0.59808177] [ 0.5234534  -0.46834525] [-0.9224495  1.086759 ] [0.66078246 0.03917918] [-0.90192497 -0.7543238 ] [ 0.4005658  -0.03998427] [-0.73055685  0.2515274 ] [-0.61151063  0.72643775] [-0.21364254 -0.45838994] [0.32703313 0.13840888] [1.1683065  0.06919502] [-0.20953088  0.21153313] [-0.2136075  0.3247733] [-0.00714782 -0.38397622] [-0.72582304 -0.26922804] [0.6647271 0.6112976] [-0.5513629  -0.54784185] [0.63461065 0.86079687] [-0.80927813 -0.09988272] [-0.32509145  0.74137694] [-0.8329502 -0.5777481] [ 0.5049367 -0.8974123] [-0.01492924 -0.11578593] [-0.33119765 -0.21085536] [ 0.05988117 -0.6772653 ] 
[0.14399175 0.61086464] [ 0.52032185 -0.6922002 ] [-0.7015011  -0.46365127] [-0.27785054 -0.18308884] [ 0.35939443 -0.8866391 ] [-0.9306546  -0.21617888] [ 0.39432737 -0.6131293 ] [ 0.28300896 -0.48034373] [0.7721722  0.79137987] [-0.40542558 -0.5400125 ] [-0.17739205 -0.5189368 ] [0.3447677  0.65212935] [0.34618425 0.6487009 ] [-0.22808385 -0.97129464] [ 0.7360161 -0.3121291] [ 0.37048528 -0.52357024] [-0.80959624  0.92030543] [-0.63758445  1.1959087 ] [0.72239023 0.55585694] [0.31884593 0.15561411] [ 0.4333409  -0.47468626] [-0.18836871  0.37980315] [-0.20622773 -0.22582985] [-0.3680392   0.04766082] [ 0.7781483  -0.47416702] [0.7707336  0.30636317] [0.23066364 0.23842321] [ 0.18367836 -0.75235534] [ 0.45466098 -0.8544921 ] [0.5977265 1.0491549] [-0.37133706 -0.4901595 ] [ 0.53072673 -0.49394733] [ 0.88487077 -0.72764355] [-0.5943436  1.0249759] [0.5014245 0.7604457] [-0.19433017  0.05066238] [ 0.23682168 -0.02777989] [ 0.41340268 -0.08336172] [-0.09353748 -0.6822342 ] [ 0.58223546 -0.41255838] [ 0.3847086 -0.5333344] [0.25066033 0.49415654] [-0.56257224 -0.8801134 ] [-0.7380525   0.21199393] [ 0.69889283 -0.91000634] [ 0.46830252 -0.3173627 ] [-0.04294326  0.8577191 ] [-0.33605698 -0.06932613] [-0.97263515 -0.83680254] [-0.48281682 -0.9442955 ] 
[ 0.26275066 -0.14720328] [ 0.0962904  -0.65070564] [-0.40813595  0.32764894] [ 0.9306055  -0.89916646] [0.78076863 0.1537624 ] [0.12783913 0.00055707] [-0.86121184 -0.8202463 ] [ 0.20182401 -0.31808287] [ 0.83453614 -0.18681893] [-0.77560884  0.14648506] [-0.47546458 -0.23201202] [0.33349413 0.5175756 ] [0.5984032  0.08658788] [0.41339043 0.6247391 ] [-0.12740655 -0.7917982 ] [-0.37002784 -0.48069948] [0.33353984 0.3341223 ] [ 0.21886246 -0.6168842 ] [ 0.26267415 -0.47539937] [0.33011198 0.11315686] [-0.31453815 -0.7308475 ] [-0.92275834  0.4168213 ] [0.725199   0.05336094] [-0.9047279 -0.4421609] [0.28627956 0.7660388 ] [-0.82356566 -0.5473265 ] [0.36427164 0.165805  ] [-0.5105125 -0.43239  ] [0.12112679 0.79150385] [0.9557911  0.22069274] [ 0.06945064 -0.7406848 ] [ 0.0977456  -0.24004184] [ 0.36801714 -0.15587544] [-0.36565518 -0.7433982 ] [-0.21641666 -0.74003905] [-0.489195    0.67236686] [-0.03353795 -0.16514151] [1.0576202 0.4952615] [0.47581175 0.12907182] [-0.03899954 -0.5154117 ] [0.03753531 0.07802343] [ 0.36438337 -0.36952114] [-0.7335802  0.2647925] [-0.7433483   0.15698501] [0.38684425 0.401223  ] [0.50694424 0.74571884] [-8.201607e-05  4.604984e-01] [ 0.23834547 -0.62672013] [-0.94862074 -0.43091723] [-0.11393259  0.23421189] 
[ 0.6999187  -0.60750854] [-0.7489004  0.9269599] [-0.7839109  -0.04301786] [0.17112745 0.08274885] [-0.8279357  -0.88594615] [-0.7890332   0.17117536] [ 0.08868977 -0.5325184 ] [0.27554828 0.640135  ] [-0.9168421  -0.00374011] [ 0.3164494 -0.7783287] [-0.4466296  -0.05567679] [0.73369884 0.33689627] [0.18028133 0.19430912] [-0.21623108  0.01482068] [ 0.21330842 -0.4141497 ] [0.90304345 0.02153272] [0.14061755 0.71446437] [-0.5126895  -0.19273996] [-0.667616    0.23568057] [ 0.40421492 -0.33729556] [ 0.3513258  -0.20812555] [ 0.40091112 -0.33784807] [-0.28703693  0.62324476] [-0.60983795 -1.0053198 ] [0.05748973 0.6924286 ] [-0.24432157 -0.8759265 ] [-0.36075395 -0.2022523 ] [-0.6266835   0.30798528] [ 1.0449685  -0.10474081] [-0.24107198 -0.20681109] [-0.68087214  0.97244245] [-0.17034869 -0.22545117] [ 0.31938055 -0.11593316] [ 0.29646695 -0.87710744] [0.6274467 0.8810079] [0.29753077 0.9091319 ] [-0.6221454   0.09492418] [0.40926957 0.3178674 ] [ 0.00858014 -0.1694365 ] [-0.5406954  -0.06212068] [-0.54401183  0.48303363] [-0.58233815 -0.88286936] [0.10473228 0.19045946] [0.74382615 0.15396322] [-0.30903828  0.6060238 ] [ 0.08055779 -0.8414394 ] [0.13170113 0.8160371 ] [-0.20737475 -0.4073484 ] [-0.7130611 -0.697109 ] [-0.13445704  0.19135965] 
[-0.8387692   0.87913716] [0.51026726 0.17324784] [ 0.65687734 -0.8396265 ] [-0.04632225  0.26018625] [0.65730584 0.5669391 ] [-0.4458615   0.88176036] [-0.7513083  0.7502672] [ 0.9418805  -0.64569294] [ 0.44413212 -0.91942894] [-0.25132558 -0.25038606] [0.09911933 0.5889219 ] [ 0.28232995 -0.32039663] [0.6333709  0.63493145] [-0.9017431  0.6979323] [-0.54679006  0.8347512 ] [-0.12109723 -0.62034273] [0.12175257 0.38639256] [ 0.02601294 -0.50846094] [0.23621029 0.714127  ] [-0.23356926 -0.5673345 ] [-0.11484531 -0.9032746 ] [0.52937907 0.40646636] [ 0.06440444 -0.5400092 ] [ 0.4879704  -0.13684107] [ 0.34929127 -0.03320863] [0.3778341  0.14721496] [-0.40205917  0.6518646 ] [-0.09980632  0.0628455 ] [-0.550082    0.15387927] [ 0.15215813 -0.72774595] [-0.83251816  0.32541192] [0.5273845  0.04680274] [-0.5464547   0.33304396] [-0.83978856 -0.11633259] [-0.6732665 -0.6310819] [-0.5954121  -0.22658588] [-0.8227096  -0.06432136] [0.22907118 0.12098298] [-0.04967516  0.76258165] [-0.5245903   0.09568218] [-0.7661509  -0.91349185] [0.12683187 0.06193109] [0.75606704 0.11574735] [ 0.91958207 -0.9026103 ] [-0.80398464 -0.9118683 ] [-0.6294463   0.08254022] [ 0.29114437 -0.9088297 ] [0.8919418  0.68433076] [-0.40677503 -0.8456249 ] [-0.66022587 -0.74611115] 
[-0.75343245  0.03712338] [-0.50830513 -0.28372055] [0.97901064 0.3686285 ] [ 0.8979613 -0.7148869] [-0.23572105  0.10946361] [-0.8464839  -0.99162513] [0.34086868 0.28363904] [-0.17842238 -0.02071185] [-0.169114  -0.9519899] [-0.3914282 -0.9287881] [-0.86532336  0.6304883 ] [0.13654822 0.17435998] [-0.35525158 -0.47983977] [-0.4499597  -0.78925025] [-0.56574416  0.6118465 ] [0.4685721  0.01999655] [-0.01253215  0.754189  ] [-0.8172419 -0.5294779] [-0.2628359  0.4741718] [ 0.9850292 -0.518659 ] [0.74861467 0.6612455 ] [-0.5506852  -0.20133483] [0.03517615 0.90273803] [-0.42238593  0.54461265] [-0.30676118  0.35812613] [-0.13512444  0.0531052 ] [0.43488193 0.3443044 ] [ 0.5508123 -1.0280986] [ 0.39304397 -0.81744796] [-0.15942    -0.00024555] [-0.14621371  0.1559166 ] [ 0.9930526 -0.7295654] [ 0.3509121  -0.20799807] [-0.7339804  -0.68252647] [0.8985462 0.759203 ] [0.81408393 0.98306555] [-0.38042128 -0.40539688] [ 0.6720525  -0.13436773] [ 0.14949341 -0.45645612] [ 0.50027543 -0.0208919 ] [-0.567318   -0.11232347] [0.08604361 0.07046814] [-0.5797856  0.4845428] [-0.9496018  -0.29033628] [0.5604253  0.12778585] [-0.47767514  0.38990623] [0.13478188 0.5924872 ] [0.47005036 0.22021584] [-0.02364465 -0.7336357 ] [-0.47733396 -0.16180106] 
[0.19859858 0.02741571] [-0.42363095 -0.9870713 ] [-0.00752156 -0.428748  ] [ 0.46921661 -0.9521075 ] [0.16965562 0.88294846] [-0.65118146 -0.05670102] [-0.817156   0.2513638] [ 0.10106336 -0.18526895] [0.04275404 0.7931493 ] [-0.6074114 -0.954871 ] [0.7233298  0.15423417] [0.78131694 0.19389045] [ 0.62032217 -0.14065327] [0.49971986 0.82608294] [ 0.14424592 -0.6384297 ] [-0.46240476 -0.60271084] [-0.50628597 -0.3871691 ] [0.11026757 0.17598327] [-0.04829691  0.33646205] [-0.73814666 -0.71880245] [-0.5576376   0.14177558] [-0.4733071  -0.32781067] [0.0164561  0.57002896] [-0.7564454   0.24505432] [0.3626065  0.49369705] [ 0.89035946 -1.0633367 ] [-0.9227743   0.50831544] [-0.2649971  -0.01815221] [0.33499727 0.26071092] [0.87242347 0.8964761 ] [ 0.48862228 -0.30886433] [ 0.7595048  -0.90155816] [-0.5378383   0.79477143] [-0.48761696 -0.5586979 ] [-0.7237494  0.7182235] [1.16518386e-04 3.49786401e-01] [-0.5218672   0.51608086] [ 0.41854906 -0.09351033] [-0.30099618 -0.36943173] [0.83076   0.5023933] [ 0.7467257 -0.1820406] [0.5428815  0.46161178] [0.3833113  0.93127793] [-0.21288933 -0.7385653 ] [0.3434177 0.4586196] [ 0.15012115 -0.5863642 ] [ 0.00891188 -0.3756205 ] [-0.14506695  0.29043716] [ 0.4904295 -0.5355506] [-0.18934928 -0.46167687] 
[-0.6027368  0.5667744] [ 0.8185054  -0.25953564] [0.5025579  0.79399055] [ 0.6922484  -0.63437325] [ 0.91258377 -0.24664712] [-0.3215187 -0.8751373] [-0.02765269 -0.78197277] [-0.5029203  -0.36611477] [0.61765265 0.7509773 ] [-0.39506736  0.71739626] [0.71446186 0.5293019 ] [-0.7066098  0.3806457] [0.89004815 0.36508095] [-0.3367663   0.00115863] [0.29145008 0.02114082] [-0.7600941 -0.3758719] [0.60479206 0.7228361 ] [-0.7253999   0.90477353] [-0.24365115  0.430248  ] [0.6023538 0.7295135] [ 0.9902029 -0.2685404] [ 0.8157164  -0.63100517] [0.6259121  0.43025205] [ 0.5712768 -0.5490739] [ 0.7709399 -0.7658979] [-0.8678768  0.3313154] [-0.2400254  0.6482845] [-0.42418253 -0.7133544 ] [0.6728844  0.09781926] [-0.62160844  0.440768  ] [0.02222728 0.20862596] [-0.07820332  0.65741795] [0.65912545 0.41877764] [-0.78919727  0.67770773] [0.34202597 0.39404833] [-0.27403432  0.7585591 ] [ 0.4507432 -0.7748191] [-0.18444394  0.77276075] [-0.9265069  0.8527276] [0.33742553 0.19264624] [-0.4797811 -0.5725221] [ 0.8632161  -0.47356045] [ 0.5510106 -0.2137564] [-0.7214919 -0.9785694] [0.08851467 0.95155764] [-0.2617276  -0.28561532] [-0.31181675  0.04108768] [-0.11867023  0.7598293 ] [0.01104158 0.01551568] [-0.7232568  0.9654791] 
[-0.50005424 -0.85327184] [0.32629248 0.19073275] [-0.1697087  -0.15561554] [ 0.57012784 -0.60857475] [0.6405066  0.29749423] [-0.16206045 -0.08394276] [-0.48670557  0.50422865] [ 0.02574948 -0.3582909 ] [0.19210023 0.9914689 ] [-0.12947544  0.8413828 ] [-0.30996633 -0.8905346 ] [-0.5915158  -0.16260971] [-0.56073016 -0.99954593] [0.8300031 0.6877588] [ 0.48458445 -0.66437083] [-0.7592729 -0.8647905] [0.44805837 0.85761595] [-0.13892835 -0.76171863] [ 0.12348918 -0.19671568] [-0.15164657  0.34828174] [ 0.5361397  -0.67317176] [-0.83011603  1.0942814 ] [-0.318713   -0.94604224] [-0.4044191  -0.97578764] [-5.4781447e-04  5.5110025e-01] [-0.10168081 -0.16533634] [0.35117355 0.01778814] [0.7228914  0.73207134] [-0.9801786  0.5560926] [-0.0785328  0.9776811] [-0.03353585  0.9737919 ] [ 0.5091387 -0.5027902] [0.07678996 0.9842713 ] [ 0.7150612 -0.8052662] [ 0.412744   -0.30884084] [-0.98603547 -0.19303806] [-0.5304912  0.6377385] [-0.32533878  0.6550474 ] [-0.99880415 -0.3843617 ] [-0.51766956 -0.5328653 ] [-0.8636268  -0.62575144] [ 0.11109914 -0.41727784] [-0.16521044 -0.24626625] [0.75180984 0.810598  ] [-0.01408606 -0.3396881 ] [-0.7863986   0.90680575] [-0.8795461  -0.40469944] [-0.4038676  -0.35919744] [-0.6714263   0.56632286] [-0.7550043   0.26981333] 
[-0.75230795 -0.85892874] [ 0.818859   -0.61974245] [0.6425003  0.08926174] [-0.844287    0.91089636] [-0.50607765  0.7192907 ] [-0.66238     0.70788574] [-0.9735424   0.02356091] [0.5388852  0.86959106] [0.81840426 0.63924974] [ 0.7763827  -0.60156065] [-0.43163142 -0.42206296] [-0.24589214 -0.21335866] [ 0.08911065 -0.68024045] [ 0.38249332 -0.6648669 ] [-0.37938303  0.00669026] [0.59288114 0.47893846] [ 0.2910687 -0.6884535] [ 0.09409069 -0.825107  ] [-0.14657007 -0.06734649] [-0.82167363 -0.3464033 ] [1.0100027 1.0128864] [-0.19664228 -0.80817866] [-0.6418101  -0.21556441] [ 0.8955594 -0.7176019] [ 0.52703166 -0.7826349 ] [ 0.9625152  -0.23676701] [ 0.5504691  -0.31481785] [ 0.25533774 -0.6159678 ] [-0.707958    0.87612826] [0.83529454 0.77493787] [0.2508669  0.61653644] [-0.86192614 -0.33042192] [-0.37259376  0.27129063] [-0.28808445 -0.7029864 ] [0.19293416 0.62876785] [-0.23575301 -0.73546255] [-0.6066236 -0.5250334] [-0.4002048   0.28559014] [0.20189098 0.39215973] [-0.27499604  0.6479953 ] [-0.59182465 -0.0619185 ] [ 0.60187745 -0.6396827 ] [-0.7802738   0.76736796] [-0.31414068  0.36774024] [-0.9493028   0.38009378] [-0.36779737 -0.8885183 ] [ 0.21962552 -0.5183924 ] [-0.22638552 -0.8388384 ] [-0.7056735  -0.40404552] [-0.820481    0.82165253] 
[-0.9879059  -0.03227956] [-0.7535051  -0.38464183] [ 0.85211915 -0.6766109 ] [ 0.93166465 -0.5884113 ] [0.4831322  0.09335453] [0.76895744 0.10798651] [ 0.06911844 -0.609084  ] [-0.66754127  0.8329783 ] [-0.3443236 -0.2558355] [ 0.5196473  -0.32235304] [0.9041249  0.47585553] [0.19485849 0.76179034] [-0.9007882  -0.48587462] [-0.06992733 -0.5460429 ] [0.48781037 0.83841604] [-0.15245976 -0.3157348 ] [ 0.9231015  -0.11029513] [-0.0219032  -0.29670027] [0.8190969  0.13791096] [0.52434915 0.6236134 ] [-0.3163019  -0.13261133] [ 0.6969435 -0.2734893] [0.58787024 0.88198465] [0.24642074 0.48325458] [0.6101946 0.6900793] [-0.20989333 -0.8974731 ] [-0.19624746  0.34751245] [-0.09929923  0.4979263 ] [-0.28603515  0.26948828] [-0.6271604   0.49873888] [ 0.09139194 -0.5918712 ] [-0.41617766  0.49721742] [-0.03479753 -0.56793714] [0.93454236 0.43025005] [ 0.9142697 -0.1457899] [-0.04979932  0.7959104 ] [0.05009868 0.4145578 ] [-0.49565426 -0.10654707] [-0.7531003  -0.58803993] [-0.99811316 -0.92146987] [ 0.9545677 -0.5152926] [0.3266214 0.6781994] [ 0.10132091 -0.693711  ] [0.45623288 0.20050281] [0.46250117 0.53949326] [0.95082074 0.14712656] [-0.31671777  0.29692912] [-0.8631186  0.7947946] [-0.761238   -0.34431434] [0.63149077 0.19462475] 
